//Numpy array shape [676, 10]
//Min -1.084916710854
//Max 0.647425413132
//Number of zeros 0

#ifndef W6_H_
#define W6_H_

#ifndef __SYNTHESIS__
output_weight_t w6[6760];
#else
output_weight_t w6[6760] = {0.0559657663, 0.0798687562, 0.0447877534, -0.1136293337, 0.0807960555, 0.0482882336, 0.0061091650, -0.0342885368, 0.0273072980, 0.0474705808, 0.0437844396, 0.2531554699, -0.0499393642, -0.1927515864, 0.0649982914, 0.0564863943, 0.0761285052, -0.0294393096, -0.0486228839, 0.1321098208, -0.0563150235, 0.1519342214, -0.0309604369, -0.1440161765, 0.0410371684, 0.1328026503, -0.0048967605, 0.0498701222, -0.1477160305, 0.0826219767, 0.0122256353, 0.3003053367, -0.1391882300, -0.2437868416, 0.0573518500, -0.1208433136, -0.0055133533, 0.1352493316, -0.0630417317, -0.0118230646, -0.0292386357, 0.0265465435, -0.1358178705, 0.0890041217, -0.0865354687, -0.0345339626, 0.0074921111, -0.0148291299, -0.0167618431, -0.0343149900, 0.0375220142, 0.1658298224, -0.1250212044, -0.1554316580, -0.0568512455, -0.0518894233, 0.0479487889, 0.0233638342, -0.0496776178, 0.1147714183, -0.0295695085, 0.1436978430, -0.0563364811, -0.1595681012, -0.1167171746, 0.1369938105, 0.0185649209, 0.0885352790, -0.2726525962, 0.0307800155, 0.1383888274, 0.2789466679, -0.0879478455, -0.2022068202, 0.1287133098, -0.0726316199, 0.1259075105, 0.1609759927, -0.1923311502, -0.0724487752, -0.2139305770, 0.1459655017, -0.1136505455, 0.1376897842, -0.0699214637, -0.1290720850, 0.2326379865, 0.0383163802, -0.1298378259, -0.0188497510, -0.0333751105, 0.0970556587, 0.0000353878, 0.0097288936, -0.1201720536, -0.0993357599, 0.2324995697, -0.0474005826, -0.0734526217, 0.1296032518, -0.1400491595, 0.1506647021, -0.1495648474, 0.0790108964, -0.1492999494, -0.1688453853, 0.2637170553, -0.0565899648, -0.2259546071, 0.0745421946, 0.0713678449, 0.1460239291, -0.1700490266, -0.1988770068, 0.0448271185, 0.0016253730, 0.0877472460, 0.1321303993, -0.1921176165, -0.0023690995, -0.0420480296, 0.0154383993, 0.0133133214, -0.0201280881, -0.2357286215, -0.0620630644, 0.1673489511, -0.0785261095, -0.1017377749, -0.0126415743, -0.0356499553, -0.0425638780, -0.0639401823, -0.0810513347, -0.2101882547, -0.0390722118, 0.1471223831, -0.1187914312, -0.2587692440, -0.0084516583, -0.0441954732, -0.1674751341, 0.0455957986, 0.0629624501, -0.3024262488, -0.1478776038, 0.1753424853, -0.1594571024, -0.2812941670, 0.0139521929, 0.0248284414, 0.1660139710, -0.0597788654, -0.1749075949, -0.0134062944, -0.0263758749, 0.1554024369, 0.1327514946, -0.1711470187, -0.1343105733, -0.1168217137, -0.2495390475, 0.1957533062, -0.0182989370, -0.3898050785, -0.1793641001, 0.1776176542, -0.1933561713, -0.0286685247, -0.1204867363, 0.0084950589, -0.2299144119, 0.0877578706, -0.0086423894, -0.3450719118, -0.2603622973, 0.2551541924, -0.2218890488, -0.2751938403, -0.1088787466, -0.1196710989, -0.3435701430, 0.0511847474, 0.0141625563, -0.3797317147, -0.1378477067, 0.2126742005, -0.2787917852, -0.1803305000, -0.2875041068, 0.0594905391, 0.0615276508, -0.0330030322, -0.2048325837, -0.0724380091, 0.0112541327, -0.0070821913, 0.1250091791, -0.0573825128, -0.1646064818, -0.1774888933, -0.0315375105, 0.0638310835, 0.0105564110, -0.3642363548, -0.2381353676, 0.0075653777, -0.2422463894, -0.1608449221, -0.1613084972, -0.0525179952, 0.2209409773, 0.0312616341, 0.0476394109, -0.3350927830, -0.1976274550, 0.1576223969, -0.2439369857, -0.5032353997, -0.1658858359, -0.0936201438, -0.2234228253, 0.1271924675, 0.1041534543, -0.4379363656, -0.0643507987, 0.1761094034, -0.3436324596, -0.2498632222, -0.2396915257, -0.0088183768, 0.0550256297, 0.0705409274, -0.0840231255, 0.0074800043, -0.0300491452, 0.0529887155, 0.0432782881, -0.1298372149, -0.0480864197, -0.0756145120, -0.0411798209, -0.0223976057, -0.0191139840, -0.4306932986, -0.0647601038, 0.0978068113, -0.2615239620, -0.0525817387, -0.2927874327, -0.0841415823, 0.1379893273, 0.0614995770, -0.2968743443, -0.2839188278, -0.3393452466, 0.2605856657, -0.1312412620, -0.3554004729, -0.3204296231, 0.0223341770, -0.0900689960, 0.0503491722, 0.1408599168, -0.3783611357, -0.1494690031, 0.2162904590, -0.2298946083, -0.1447092593, -0.4433369935, 0.0430982262, 0.1208720803, -0.0515021048, 0.0334701128, -0.0118383011, 0.0492375046, 0.0824926868, 0.0118681099, -0.2050453722, -0.0724116117, -0.1456364393, -0.0619652979, 0.0674321577, 0.0294220969, -0.2666010857, 0.0575649142, 0.0356162153, -0.1739366353, -0.0522569902, -0.3426521719, -0.0374547355, 0.1264327168, -0.1058290824, -0.2709255219, -0.2290893197, -0.0750945136, 0.0974952430, -0.2065770328, -0.0982114300, -0.2312107831, 0.0613712333, 0.0355327278, 0.0296888668, 0.0471500307, -0.3772845864, -0.0384603553, -0.0049467301, -0.1442645043, -0.0676624700, -0.2417648733, 0.0787382051, 0.0594803318, -0.0194226503, -0.0766904950, 0.0334413461, -0.0669251829, 0.0638494790, 0.0206195917, -0.1581577361, -0.1816814542, -0.1631115973, -0.0886127800, -0.0970382243, 0.0708287135, -0.3365968168, 0.0904866681, 0.0812098011, -0.1201438829, -0.0540568009, -0.1828504354, 0.0820563659, 0.0890450925, -0.1063423529, -0.1416639090, -0.4572412074, -0.0713839009, 0.0857239738, -0.0390094630, -0.0821396410, -0.1243083403, -0.0811704174, -0.1599781960, 0.0742136613, 0.0917474180, -0.2506674826, -0.0723391101, -0.0455486774, -0.1869694442, -0.0541772731, -0.1798084080, 0.0297350287, 0.1564362347, -0.0003804060, -0.0282481313, -0.0351287536, 0.0036246623, 0.0611759797, 0.0334483720, -0.1098838747, -0.0203703232, -0.2143478692, -0.2139065117, -0.1041463763, 0.0513327792, -0.3161250949, 0.0327724367, 0.1589005291, -0.1290166676, -0.0429419950, -0.1441733241, -0.3220186234, 0.0901010707, -0.1913244128, -0.1600587070, -0.0943366289, 0.0703936443, 0.2540802062, 0.0407304838, 0.0069548548, -0.0586895607, -0.0784036741, -0.2132550031, -0.0874694660, 0.0971102715, -0.1351237297, 0.0661828220, 0.0818020403, -0.0912594199, -0.0528974161, -0.0729095861, 0.0434166119, 0.0489145741, -0.0173248071, -0.0186140668, 0.1108409986, 0.0406244360, 0.0029676585, 0.1451202184, -0.0822794512, -0.1287188977, -0.1804295629, -0.1249914616, -0.0872821435, 0.0544981360, -0.1366674900, -0.0679209828, 0.2452317476, -0.1081290320, 0.0231159478, -0.0727503151, -0.1012133807, -0.1035322323, -0.1073990837, -0.3288327157, -0.1473741680, -0.1879909337, 0.1912022531, 0.0453142785, 0.0735851973, 0.0520649217, -0.1205328181, -0.1576461941, -0.0597747453, 0.0656508058, -0.0660007522, 0.0546474420, 0.0173323248, -0.1168732494, -0.0134639470, -0.0605106056, 0.1040988266, 0.1085304394, -0.1835435033, -0.1942306012, 0.1543831229, 0.0125777461, 0.1633860320, 0.1175159663, -0.1241647601, -0.0468831547, -0.1086452827, -0.1073175967, -0.1169390753, -0.2422246486, -0.0757867098, 0.0051478678, 0.1821784228, 0.0342006013, -0.0208050571, 0.0038184852, -0.0672084466, 0.0207639411, 0.0588130802, -0.2779521942, -0.0667870715, -0.0294362232, 0.0773490071, -0.0315632410, 0.0031085270, 0.0347346254, -0.1179436594, -0.3127129376, 0.0280475598, -0.1655042022, -0.0087479334, -0.0277904905, 0.2062448710, -0.0463805012, -0.0147429686, -0.0960286334, 0.0622044951, 0.2138865888, -0.1584728807, -0.1957188547, 0.1654802263, -0.0236761738, 0.1390947700, 0.1534869522, -0.1630155891, -0.0707312599, 0.0601287894, -0.0071544242, -0.0225381609, -0.0322277695, -0.0295586810, -0.0406065062, 0.0171394497, 0.1189166084, -0.0345683694, 0.0631938651, -0.0628471226, 0.0727703199, -0.0175186191, -0.0906204581, -0.0162816495, -0.0108215194, -0.0384707935, 0.0419739410, -0.1590713561, 0.2174664289, -0.0782689750, -0.1695572436, -0.0706164390, -0.2284034491, -0.2044593692, -0.0647235066, 0.1278932393, 0.0048240623, -0.1723532528, 0.0122374212, 0.1192859113, 0.1857285053, -0.1219169721, -0.1094709635, 0.0668263212, -0.0802647546, 0.0892334059, 0.1890953183, -0.1254353672, -0.0966778323, 0.0044458499, 0.0266425032, -0.0607536584, 0.0566168763, -0.0738472715, -0.1149800494, 0.0780901834, 0.0612035096, -0.0136181824, 0.1015293822, 0.0093572522, 0.2051009834, -0.0847721845, -0.0017913547, -0.0893334746, -0.0846221521, 0.1489773989, -0.0536296368, -0.1027717963, 0.1873790026, 0.1131021157, 0.2566446662, -0.0491656624, -0.0459043644, -0.0373288728, -0.0827301294, 0.0940058678, 0.0381461456, -0.0942132249, -0.0805781931, 0.1064544991, 0.2978607118, -0.0259157140, -0.1629315764, 0.1899898201, -0.0402851142, -0.0334323794, 0.1745431870, -0.1103522032, -0.1003839895, -0.2692672014, 0.2068910897, -0.0467222333, 0.0787211433, 0.0196947269, -0.2992869914, -0.0059693577, 0.0074554714, -0.1650782675, 0.0858472064, -0.1846020371, 0.1304189861, -0.1147250086, 0.0676263571, -0.0199558139, -0.2304627150, 0.1582005769, -0.0449659601, -0.1568004787, 0.1066727191, -0.0597702526, 0.1359436661, -0.1365528852, 0.2315175831, 0.0354709178, -0.1826796681, 0.1488020420, -0.1895350516, -0.3012495935, -0.1097633094, 0.1214745641, 0.1930686682, -0.1064257324, -0.1700128615, 0.1894009560, -0.1462009549, 0.0394209698, 0.1401284337, -0.0647460148, -0.1314527541, -0.1700194478, 0.2108861357, -0.0147573315, 0.1083496362, -0.0320407599, -0.1439978033, 0.0140565280, 0.0500966869, -0.1146780923, -0.1351122856, 0.0018624313, 0.0822834522, -0.0681330338, 0.2002295554, -0.0425599851, -0.0787279904, 0.0423780270, -0.1126269102, -0.1473930478, -0.0420799069, -0.1612930000, -0.0007006003, -0.1427375227, 0.2238357365, -0.1220485941, -0.1115482822, -0.0495626293, -0.0922157988, -0.1455446035, -0.3012823462, 0.0909302309, 0.2243710607, -0.1053647250, -0.0557714365, 0.0463171005, -0.1149942651, -0.0814480409, 0.0795014575, -0.1991124153, -0.0818288773, -0.0831111148, 0.0509112328, 0.0450591445, 0.0720926672, -0.1519578695, -0.0596762598, -0.0143119348, 0.0374578089, -0.0230554007, -0.1858347803, -0.0152462637, -0.0823986456, 0.0546579696, 0.1178920716, -0.1373144984, -0.1553091258, 0.0115832966, -0.3723585308, -0.1406436414, -0.5419386029, -0.1012092829, -0.0839718357, 0.0487690568, 0.0400874056, -0.0189748555, -0.1850057542, 0.1109972894, -0.0014245842, 0.0087194089, -0.3972357512, 0.0350733176, 0.0683649182, -0.0044421330, -0.0240311325, 0.0547721237, -0.0483468026, -0.0729788169, 0.0786145031, -0.1615363210, -0.1911634058, -0.0683825687, 0.0307853092, 0.0488725044, 0.0783017576, -0.2251766622, -0.1067203358, -0.1090558395, -0.1446600407, -0.0819218680, -0.1262204647, -0.0405880623, -0.1441955417, 0.0210233480, 0.0809706300, -0.2794662118, -0.1151706055, 0.0580708496, -0.3745327294, -0.1509488374, -0.3213330805, -0.1719956100, -0.2211265415, -0.0117728580, 0.0345231779, -0.1001797244, 0.0466840863, 0.0390829369, -0.0918685272, -0.0622213967, -0.1515089720, 0.0962370634, -0.0253203735, 0.0238777455, 0.0040357220, 0.1672016531, 0.0756204575, -0.0746689886, 0.0818703026, -0.0082432711, 0.0669114590, -0.0948476493, -0.1331078708, 0.1375710219, 0.1161835715, -0.1082297117, -0.1344342381, -0.2023523897, -0.1340129226, 0.0267107021, 0.0643909648, -0.0208440404, -0.2852570117, 0.0886821449, 0.1928956509, -0.2588031888, -0.1648900062, -0.0245720148, -0.3343977928, 0.0134975221, -0.1403466314, -0.1178858653, -0.1238199770, 0.1002493575, 0.0095742475, -0.2157562226, -0.0246622562, 0.0068870634, -0.1635036469, -0.0229930710, -0.0303879306, 0.0184365679, 0.0443914272, -0.0408494361, -0.0197306443, 0.0751207247, -0.0623428561, -0.2188250571, 0.0015972588, 0.0984968841, 0.0101630855, 0.0024184613, -0.0865784585, 0.1015056297, 0.0325220749, -0.1052573174, -0.1141549498, -0.1498727351, -0.0466634445, -0.0003566824, 0.1210039482, -0.2017403692, -0.0291738827, 0.0557098240, 0.0537628978, -0.2777292728, -0.0817940533, -0.0735794827, -0.3338150680, 0.1056923568, -0.3295952380, 0.0457299948, 0.1335648149, -0.0136082955, -0.0411104560, -0.2561057806, 0.0220044609, 0.0819468573, -0.0900190324, 0.1116613820, -0.0427296199, 0.1222140864, -0.0585279092, -0.0013692887, -0.1156026199, 0.0899315476, -0.1818107069, -0.1066946238, -0.0632356182, 0.0533862077, 0.0507363640, 0.0469069220, -0.0404484235, -0.0013198031, 0.0884890929, -0.1128921211, -0.0589139685, -0.0956384093, -0.0637819618, 0.1246121377, -0.0864840522, -0.1153677478, -0.1084373519, -0.0529774763, 0.0755256489, -0.1352291554, 0.0640189201, -0.0778156146, -0.3855460882, 0.1371735334, -0.3670098782, -0.0148222419, -0.0169354919, -0.0499615744, -0.0574814491, -0.0328070186, -0.0970933661, 0.0531006642, -0.0576850958, 0.0276230816, -0.0236880202, 0.1331440955, -0.0663166270, -0.0398710258, -0.1033578217, -0.0102551207, 0.0428508110, -0.1018246785, 0.0301565118, -0.0349390134, -0.1073967740, 0.0486033261, -0.0297721680, -0.0313002281, -0.0510496236, -0.1609068215, 0.1691248715, -0.0573973730, -0.2428221703, 0.0085139889, -0.0855174884, -0.0753413066, -0.2572366893, -0.1055812165, 0.0387016311, -0.0785564482, 0.0871532187, 0.0306692887, -0.5246355534, -0.0056929262, -0.3002977669, 0.0182512160, -0.1170101315, -0.0040505696, 0.0509550609, -0.0055562234, 0.1065443307, 0.1838293970, -0.1026096269, 0.2000547200, -0.0619745366, -0.0058926269, 0.0300031845, 0.0252721421, -0.0285760332, 0.0628066733, -0.0341612138, -0.1515762955, -0.0365557671, -0.0050028060, -0.1342834681, 0.0189550556, 0.0247032717, 0.0550289638, -0.0426828302, -0.0650999695, 0.0381188914, 0.1799920946, -0.3060894310, 0.1031658649, -0.2001065761, -0.2163385153, -0.2198459506, -0.2037586719, -0.0016481344, -0.1252215058, 0.0818908736, 0.1273901463, -0.3228834867, 0.0521426722, -0.3225523531, -0.0294123311, -0.0735501722, -0.0291475710, 0.0000308593, 0.0549698286, -0.0259114988, 0.1293667108, -0.2851824462, -0.0180548690, -0.0746316984, 0.0566600412, 0.0306973215, -0.0924278945, -0.1567742676, -0.0169244148, -0.0725361481, 0.0030385044, -0.0583158471, 0.0452018753, -0.0983935520, -0.0080997515, 0.0756465867, -0.1119563282, -0.1805803776, -0.0237768572, -0.0153513663, 0.0684171021, -0.2756466269, -0.0047484101, -0.1704339683, -0.1742348224, -0.1794399321, -0.0965317860, -0.1930136681, -0.0200736877, -0.0407786928, 0.1731213182, -0.1911947876, -0.1106848046, -0.3750731945, -0.0713169649, -0.0264449045, -0.0192459002, -0.0945261866, 0.0844163373, -0.0254564378, 0.1981004477, -0.3985553682, 0.0833698213, -0.0560089499, 0.0558723658, 0.2069957256, 0.0226436965, -0.1579921842, 0.1312857568, -0.0202503596, 0.0354961790, -0.0045179073, -0.0326538570, -0.0441678613, -0.1244212463, -0.1191249043, -0.2742455900, -0.1293524206, 0.1244969368, 0.0655148327, 0.1598691195, -0.3964938819, -0.1899406165, -0.3242773116, -0.2323615849, -0.1216280535, -0.2965971828, -0.4266162813, 0.1247119606, 0.0492913276, 0.1384847909, -0.2213828862, 0.0016564743, -0.2858461440, -0.0843203366, -0.1079983637, 0.0113725243, -0.1701751351, 0.1099931523, 0.1256025881, 0.0226707570, -0.3364515007, 0.0080463560, -0.2665054500, 0.0215783939, 0.0606011190, -0.0182737708, -0.0715951249, 0.2085117996, 0.0745710284, 0.0073006377, 0.0367963053, -0.0535249151, -0.1238968298, -0.2726368904, -0.0302503780, -0.1914227903, -0.2783609331, 0.0133207226, 0.1351968199, 0.0242833756, -0.0330865607, -0.0503904931, -0.1436387450, -0.0926614478, -0.2363887280, -0.0336960070, -0.3186619282, 0.0041746325, 0.0851500109, 0.0906441733, 0.0268150810, 0.0024261526, 0.0829345435, -0.1977045536, -0.1113830581, -0.2528002560, -0.1128210425, -0.0265601557, 0.1312198639, 0.1276189834, -0.2085830420, -0.1161978543, -0.2378265262, 0.0760495216, 0.1487359107, -0.0880090594, -0.2593214810, 0.1577931643, 0.1048236117, 0.0418958962, 0.1818835437, -0.0559351668, -0.0196483731, -0.0170290750, 0.0524991378, -0.1622597128, -0.0899391696, 0.0043865228, -0.0979589447, -0.0522083752, 0.1900911480, -0.0595433563, -0.1377676427, -0.1103106439, -0.0295248795, -0.0285859648, 0.0920131803, 0.0468161106, -0.0391016789, -0.0549401268, 0.1407372802, -0.0598705970, 0.0611233264, -0.1072456762, -0.0254495982, -0.1530694664, 0.0642846152, 0.0062935217, -0.0887243077, -0.0967940241, 0.1437444240, -0.0794978738, -0.1689283997, 0.1587772816, 0.1850508451, -0.0392644741, -0.0982646272, 0.0987910926, -0.0734365210, 0.1159631163, 0.1978246719, -0.1388958693, -0.1423454732, -0.0909774527, 0.0897191986, -0.0106158610, 0.0132948030, 0.0644135475, -0.2480830997, -0.0373386554, -0.0350839570, 0.0097879907, -0.2650920749, -0.1759125143, 0.1066826954, -0.0158150755, 0.1383364350, -0.0423506238, -0.1391523480, -0.0068366635, -0.0047055203, -0.0900380239, -0.4864518940, -0.2756700218, 0.0534569286, 0.0212121196, 0.1998750418, 0.0597163066, -0.2749979496, 0.0113270963, 0.0053673363, -0.2015980333, -0.3779682219, 0.0725803673, 0.2481089681, 0.0830817968, -0.0319606923, 0.1904353648, -0.1984653473, 0.0409674719, 0.0278663188, -0.1433231384, -0.1438892633, -0.0938857570, -0.0672126114, -0.0040977667, 0.0774869770, -0.0253954306, -0.0757940635, -0.0717236027, -0.0685640946, -0.0761175603, -0.2112042308, -0.0166819468, -0.1440746337, -0.0538991243, 0.0316317752, 0.0753525048, -0.0361682139, -0.0669367164, 0.1139789075, -0.0611688606, -0.2440685928, -0.0786866024, -0.0717726275, 0.0665316358, 0.1106378362, 0.1387376934, -0.0969121978, -0.1320197135, 0.0500229821, -0.0491742492, -0.1383871883, 0.0287054479, 0.1271547377, 0.0419411622, -0.0481828712, 0.0557490028, -0.0513316356, -0.0042954348, 0.1367072910, -0.1501261294, -0.1357778162, -0.0374681912, -0.1280257255, 0.1227791831, 0.1419946402, -0.0137805603, -0.1563535184, -0.1307678819, 0.0109031852, -0.0285599548, 0.0144112213, -0.1721037477, -0.2087959796, 0.0913734436, 0.0023722078, -0.0713124424, -0.0902424976, -0.0460964665, 0.0216211453, 0.0240517892, -0.1887467355, -0.1864518821, -0.1828218251, 0.0522465929, -0.0702581555, 0.0636485294, 0.0166350659, -0.0315306708, -0.0261691399, 0.0945608094, -0.1098611429, -0.0058476743, 0.0946184322, -0.0687232539, -0.0648531690, 0.1209961176, -0.0304341912, -0.2475124300, 0.1521107703, -0.0596689060, -0.0608794950, -0.0495762825, -0.1425036192, 0.0532261878, 0.2042904496, -0.0070248321, -0.0528285578, -0.0850198492, 0.1578874439, -0.1042902395, -0.0273252521, -0.1236255616, -0.1996066868, -0.0122447358, 0.1128045991, 0.0027823923, -0.0457710922, -0.1354852915, 0.0422021411, 0.0266088042, 0.0467342995, 0.0420832187, -0.2026916146, 0.0940175951, 0.0363161303, -0.1178317815, 0.0558318496, -0.1022560075, -0.0494821779, 0.0373925343, -0.0386138633, -0.0123923803, 0.0038883919, -0.0375992954, -0.0001949806, -0.0617073625, -0.0944623649, -0.1815609485, 0.1923182756, -0.0862308517, 0.0455197580, -0.0066977493, -0.0560418628, -0.0228905734, 0.1060931906, -0.2228564620, 0.0275347382, -0.2367855906, 0.0332828946, 0.1105232090, -0.0333930328, -0.0836756900, 0.0380664952, 0.0725449398, 0.0142427394, -0.1307330281, -0.1620702296, -0.0268233158, -0.0252031442, -0.0255841427, 0.0231240764, 0.0077362382, -0.0927680209, 0.0292254090, -0.0483395979, -0.1261926591, 0.0057545900, -0.1226046756, 0.0619689934, -0.0096669188, 0.0170368385, -0.0947163999, -0.2198798507, 0.1079044715, 0.0544195026, -0.0638778433, -0.1095479205, -0.1434020698, 0.1601232588, -0.0606700666, 0.1192779168, 0.0122918626, -0.2160181999, -0.0729124099, 0.0537028573, -0.2850163579, -0.1006241441, -0.2711536288, 0.0093852915, 0.1358592510, 0.1729328036, -0.0719046742, -0.1343603730, 0.1519495547, 0.1391980499, -0.2040586621, -0.0298106726, -0.0804433748, -0.1751840562, 0.1280641854, 0.0460030474, 0.0725673810, -0.0177437346, 0.0726058632, 0.0368370637, -0.0353979357, 0.0067756935, -0.0186285023, -0.1339604110, 0.1093158796, -0.0674662516, -0.0737438872, -0.2931194603, -0.0252902694, -0.0421145633, -0.2739080191, -0.0501660146, -0.0544621274, 0.0824436396, -0.0596798547, 0.2806932330, -0.0362605900, -0.3056533039, -0.0636566952, 0.0962407514, -0.2930444181, -0.0012442051, -0.1153351814, -0.0603979230, 0.1770673692, 0.3315154612, -0.0103448713, -0.0929499716, 0.1101522744, 0.0686365142, -0.1372951716, -0.0591311008, 0.0174544267, -0.1574347615, 0.0512016416, 0.0068729934, 0.0923463628, 0.0146949152, 0.0944480896, -0.0766467229, -0.0969372839, 0.0686833933, 0.1088055521, -0.0535335913, 0.0162371732, 0.0164523758, 0.0457315743, -0.2577530742, -0.0651152730, -0.1241994351, -0.1590907574, -0.0670875534, -0.2069641203, 0.1773524284, -0.0348380171, 0.2427859157, 0.0677094162, -0.2451912612, -0.0372507200, 0.0301156361, -0.2109914720, 0.1404752284, -0.1109473258, 0.0910484567, 0.0794906840, 0.0881571323, 0.0405164994, -0.0665623769, -0.0281374045, -0.0731123909, -0.1702143550, 0.0290461723, 0.0641701072, -0.1231646836, 0.0128898555, 0.0341456048, 0.0134694139, -0.1045611948, -0.0887249559, -0.0784856305, -0.0985205919, 0.0666670129, 0.0415489636, -0.1301156282, 0.0460933484, 0.1272153556, -0.0309914984, -0.2332045287, -0.0922931209, -0.1380441487, -0.1188464537, 0.0563799404, -0.0361711085, 0.1488332450, -0.0626204163, 0.1967838705, 0.0930369049, -0.0347849093, 0.0167402718, -0.0788530633, -0.0898063704, 0.1205990463, -0.0791605785, -0.1204564124, 0.0703132749, 0.0656778440, -0.0644269064, -0.0481031574, -0.0415236317, -0.0520443916, -0.0652508512, 0.1498738974, 0.1696452051, -0.1457194686, 0.0554402769, -0.0384241529, -0.0032272760, 0.1461310238, -0.0877357349, 0.0261093862, -0.0163714122, 0.0813973472, -0.0047941641, -0.0374074019, 0.0813182965, -0.0776375011, 0.0273868442, -0.1962526441, -0.0692037567, -0.1697539538, -0.0764040723, 0.1327191740, -0.0032129046, 0.1146765053, 0.1117515191, 0.0658555627, 0.0306282882, -0.0477037951, -0.0074784346, -0.0341020226, -0.0159424022, 0.0900445506, -0.0498518459, -0.0057208925, 0.0397059359, -0.0444070399, 0.0180607289, 0.0225983802, -0.1262630373, -0.0825949535, 0.0417181328, 0.0703648105, 0.2227671444, -0.3316316903, 0.0092781857, -0.1719709188, 0.0221064854, 0.0978631079, -0.1457059830, -0.0306224059, 0.0610677600, -0.0213547964, 0.0467352271, -0.0288999937, -0.0466405265, -0.0525444373, 0.0827809721, -0.0638051704, -0.0431502722, -0.2672843933, -0.0058485749, 0.0573804714, 0.0536657423, 0.0856983364, -0.1163038164, 0.0394492112, 0.0868444219, -0.1185448170, -0.1764802486, -0.1733155698, 0.0985205993, 0.1027228460, -0.0192547832, -0.1647292972, 0.1337269396, -0.3367286026, -0.0931738243, 0.0038451187, -0.1925038397, -0.1809066534, 0.2111741453, 0.0560042672, 0.2451155931, -0.2479604483, -0.1308426857, -0.3770907223, 0.0580604523, -0.0137762511, -0.0406324230, -0.1234548986, 0.0754759014, 0.1063912436, 0.0523191728, 0.0292634424, 0.0211137049, -0.2820581794, 0.1440795511, 0.1499026418, -0.1247670203, -0.2102361470, 0.0710252672, 0.0645656437, 0.0016045403, 0.0105615854, -0.0454881378, -0.0576012395, -0.2191690952, -0.1823227555, -0.3348129988, -0.0585427955, 0.0067674764, 0.1394096911, 0.1363635361, -0.1852725595, -0.0071848598, -0.3145895898, -0.2588357627, -0.1637987345, -0.1966540813, -0.1157991439, 0.1347370744, 0.2256680876, 0.0561614670, -0.3332946897, -0.0108540375, -0.3798447549, -0.2045346946, -0.3015826344, -0.3184289038, -0.0666136146, 0.1222638860, 0.0808706805, -0.0259595606, -0.1466710865, 0.0993766487, -0.3088549078, 0.0475898273, 0.1564550102, -0.1118900403, -0.2971843183, 0.2177890092, 0.0339843668, 0.1325237304, -0.0062509417, -0.1196990013, -0.0231391545, 0.0260320399, -0.0512602367, -0.0591808744, 0.0133637190, -0.0507343635, -0.2235320657, -0.0392988101, 0.2214362621, -0.0454386622, -0.2391247451, -0.0026635164, 0.0048647714, 0.0706786364, 0.1174195334, 0.1181915253, -0.1984014511, -0.1796494573, 0.1320028901, -0.0681043342, -0.2704440355, -0.0798566267, -0.0873415247, 0.0376974903, 0.0062225759, 0.0202291030, -0.3272912204, -0.2596493065, 0.1159484386, -0.0807162821, -0.4028367102, 0.1232834831, 0.1665752381, -0.1744134277, -0.2378161848, 0.1443495005, -0.0584451333, -0.0301107075, 0.1783412546, -0.2073625475, -0.0839594826, -0.2245862335, -0.0627842918, 0.0420228131, 0.0837075785, -0.0573495030, -0.3827521503, -0.1068752334, 0.0277873874, -0.0688553378, -0.3064663112, -0.0321105905, -0.1451812685, 0.1658819914, 0.1622759104, 0.1357362568, -0.1436589211, -0.0958528817, -0.0060685906, 0.0033162036, -0.2015389800, -0.0689689964, -0.0223294478, 0.1180490032, 0.1676936746, 0.0499669090, -0.1762283146, -0.0300662182, 0.0901550427, -0.1162508801, -0.2239702940, -0.0408235341, 0.2493158877, -0.0791761205, -0.0904950202, 0.0320650712, -0.1608207673, -0.0697614476, 0.1956068873, -0.0289588589, -0.0169471540, -0.1601357311, -0.1472498626, -0.0357675999, 0.0053534703, -0.0824219286, -0.2629024386, -0.1509181261, 0.0330572240, -0.0594375730, -0.1357342303, -0.1790220886, -0.1285369694, -0.0210610125, 0.1133560315, -0.0559438914, -0.2076805085, -0.1064803451, 0.0887318403, -0.0233359151, -0.1966635734, 0.0138614587, -0.1647354066, 0.1048747674, 0.0717694685, -0.1151583046, -0.1323736906, -0.0772517473, 0.0376035273, -0.0090897651, -0.0774089918, 0.0477053262, 0.1528628170, -0.0076471400, 0.0227142554, -0.0733789802, -0.2911242843, -0.2001089156, 0.0874100402, -0.2066522837, -0.0591868572, -0.0280478690, -0.1322069764, -0.0590812936, -0.0346273854, -0.1114125028, 0.0004524452, -0.0421372578, 0.1102404445, -0.0256764404, -0.1942887157, -0.1115805060, -0.1897736192, -0.0089959325, 0.1022950113, -0.0587006621, 0.0332989246, -0.1000579149, 0.1104019359, 0.0183372851, -0.0421536602, -0.1389723718, -0.1813116372, -0.0956994668, 0.0963237211, -0.0282236617, 0.0816933736, 0.0027009544, 0.0693974420, -0.0069644195, 0.0489934385, -0.0097059961, -0.0138925435, 0.1032507792, 0.1797187477, -0.0308556855, -0.2337056845, -0.1500981003, 0.0444949046, 0.0104642203, 0.0414925814, -0.0890561268, -0.1899349093, 0.0758275241, -0.0094162868, -0.0435331129, 0.0672334656, -0.1344819218, 0.0885375887, -0.0432892963, -0.0024349149, -0.1203486398, -0.0607174411, 0.0633516535, 0.0158920512, -0.2229923904, -0.1173992231, -0.0727875903, 0.0720029622, -0.1095359698, -0.1726883203, 0.0172430314, -0.0897538438, -0.0136444410, 0.0043449337, -0.0692223459, -0.0612149127, 0.0412897989, 0.0542913899, -0.0427282155, 0.0132835414, -0.1362567991, 0.0472676978, 0.1371690333, 0.2708976269, -0.1007306278, -0.2373611480, -0.2642179132, 0.0541132428, 0.0045391945, -0.0841302127, -0.0338862166, -0.0252554510, 0.0248796642, -0.0400832556, -0.0224733651, -0.0040055616, -0.1774131060, 0.1133039892, 0.0324920900, 0.1363059580, -0.0414837636, -0.1098324135, -0.0535096191, 0.1180454716, -0.0964182466, 0.0145040955, -0.2103787363, 0.0215107147, 0.0853090808, -0.0620346554, -0.0284535941, -0.1529742628, 0.0347750746, 0.0738672167, -0.0261305980, -0.0322673991, -0.0818035677, -0.0341945961, -0.0411772877, 0.0257266387, -0.1950905174, -0.2143394202, 0.1858722270, 0.2084887475, -0.2876031697, -0.2362395227, -0.2803049982, 0.0424716845, 0.0305040143, 0.0957880616, 0.0419553854, -0.1983935684, -0.1219671667, 0.0171928015, -0.2646249831, -0.0776474178, -0.3386136591, 0.0817366317, -0.1062567756, 0.0871089026, -0.0505021326, -0.0673664808, 0.0820839182, 0.1599362791, -0.2873816490, -0.0267216321, -0.1403447986, 0.0020234270, -0.0571732409, 0.2622845769, -0.0318759494, -0.0865142718, -0.0810721740, 0.0045017195, -0.1166880727, -0.1158265546, -0.0617358088, -0.0032577917, 0.0733085871, 0.1783976555, -0.0202802010, -0.3458105028, 0.0802395791, 0.0769524798, -0.4800501764, -0.0845967904, -0.2850439847, 0.0779289901, 0.2002087086, 0.2230544090, 0.0413494594, -0.0381199606, -0.0904229358, 0.0325551443, -0.2820335329, -0.1075068787, -0.1829737127, 0.1803534627, -0.1767242849, 0.1430005431, 0.0554100983, -0.1589154601, -0.0901284739, 0.0186028052, -0.3481528163, 0.1057715490, -0.1165351421, -0.0126818605, 0.0706878155, 0.1758302003, 0.1048942655, -0.0290596187, 0.0435439311, 0.0453341641, -0.1004189327, -0.0363119580, -0.0689527988, -0.0044387407, 0.0416515544, 0.0922145098, -0.0240792017, -0.2187830061, 0.0009207203, -0.0866946727, -0.4878896475, 0.1882461458, -0.1457117647, 0.0003144366, 0.0456634872, 0.2672757208, 0.1127289832, -0.2238828689, -0.0882385522, 0.0124572264, -0.1348226666, 0.0004965424, -0.1900529116, 0.1684397310, 0.0698811337, 0.1382654756, 0.1272303462, -0.0795787573, -0.0724271461, 0.0355121903, -0.2372556776, 0.1495884210, -0.1020117849, -0.0761159584, 0.0111855688, 0.0641469285, -0.0187673438, 0.0293119084, -0.0320815630, 0.0685703456, 0.1729074568, -0.0414909199, -0.0048405025, 0.1163171381, 0.0142406560, -0.0637555495, -0.1265442222, -0.2953735888, -0.1377204359, -0.2588783503, -0.2355934829, 0.2630449533, 0.1894053519, 0.0056067361, 0.0580886714, -0.0010577866, 0.1081129387, -0.1081026122, -0.1067651585, -0.0330911987, -0.1107995659, 0.0203565396, -0.0989601389, 0.0951393470, 0.0098510440, 0.0917194262, -0.0280989315, -0.0616997965, -0.1409542412, -0.0314421654, -0.1235707402, 0.0982491225, -0.0031025945, 0.0330639258, -0.0275706053, 0.1044338122, -0.0166902766, -0.0667502210, -0.1326199770, 0.0089846710, 0.0263580866, 0.0056112069, -0.0832354799, 0.0344121717, 0.1119858697, -0.1028277948, -0.1014667302, -0.2332952470, -0.2201285958, -0.3645505309, -0.1366550177, 0.4688110352, 0.3304515481, -0.0504364409, 0.1117893308, 0.0774422735, 0.0405346788, -0.0502856337, -0.0306752492, 0.0712182373, -0.1025575250, 0.0044474392, -0.0503154211, -0.0658149645, 0.0289042108, -0.0692568570, -0.0392207950, 0.0265029036, -0.1023713723, -0.0782364830, -0.0533168949, 0.1346830875, -0.0441616625, -0.0369820818, -0.0761036724, 0.0617936142, -0.0360425524, -0.0773774758, 0.0171360243, 0.1077721342, 0.1265144199, -0.0786374509, -0.0461918190, -0.0325107165, 0.0029427693, -0.1867151856, -0.1806688309, -0.1967091858, -0.1534881443, -0.3642469347, -0.0760096684, 0.3954449296, 0.2727565467, 0.0244731717, -0.0062929248, -0.0154951792, 0.0370368846, -0.2136637866, -0.1461936086, -0.1189400181, 0.0059938864, 0.0223345682, -0.1281363964, -0.0150676351, 0.0033762315, -0.0776894838, 0.0531193204, -0.0625783727, -0.1527823508, -0.1628988981, 0.1205317304, 0.1325945556, 0.0160336141, -0.2144793719, -0.0040198956, -0.1365409940, -0.0307444129, -0.1621229500, -0.1264757216, -0.1017766073, 0.0590961799, 0.0318066813, -0.0063818949, -0.0384543389, -0.0022909390, -0.1711987853, -0.0463396087, -0.1173486784, -0.1340872347, -0.2685958743, 0.0188519470, 0.2134236246, 0.0674415380, 0.0242267586, -0.1179168001, -0.0908587947, -0.1322661638, -0.4282929599, -0.3555625379, -0.4008949101, -0.0632431209, 0.3591509461, -0.3062808812, -0.2786720693, 0.0330209136, -0.2863485217, -0.3446432650, -0.1927873045, -0.3345945477, -0.2238669544, 0.1534971148, 0.1786091477, 0.0587966815, -0.3020359874, 0.0196588412, -0.2869254053, -0.0884345472, -0.5404394865, -0.2267302126, -0.4234272242, 0.0487931259, 0.4240956008, -0.2249134183, -0.1896358579, 0.1747467220, -0.2343570739, 0.0342007689, 0.1419887990, -0.1512139738, -0.2328527272, 0.1152399033, 0.1251220405, -0.0861783847, 0.0853814706, 0.0270426124, -0.0887461677, 0.0525415875, -0.0063001043, 0.0323182009, 0.1501694471, -0.1640384346, -0.2252577096, -0.1357573718, 0.2098260820, -0.1625315994, -0.2183671743, -0.0266268123, -0.1193300858, 0.0378655121, 0.0373014845, -0.3223916888, -0.3910212815, -0.2455200702, 0.2353867292, -0.0699420124, -0.2082045525, -0.1293603629, -0.0996546596, -0.0313677713, 0.0916509628, -0.3456368446, -0.2920537591, -0.1754476577, 0.2473348677, -0.1121876687, -0.2747004926, 0.0466653295, 0.1656226516, -0.1529286802, -0.0663072169, 0.1400492042, -0.0472171605, 0.0210606866, 0.0979208723, -0.1212683842, -0.1205801740, -0.0588316992, -0.0832488313, 0.0876428559, 0.1097800210, -0.3204623461, -0.1834779531, -0.2273646593, 0.1302409768, 0.0275607109, -0.2062708288, -0.1088202894, -0.2617286146, 0.1252908707, 0.0285269655, -0.0883265138, -0.0993456766, -0.2005003691, 0.0477215312, 0.0511779264, -0.0657654777, -0.1809820980, -0.1998627931, 0.0254237875, 0.1382546276, -0.1253748387, -0.2397108823, -0.1910610795, 0.1172009856, 0.0203481633, -0.0828808993, 0.0796034411, 0.1470232606, 0.0234938189, -0.0474010222, 0.0420941636, -0.0432948470, -0.0143958312, 0.2466750145, -0.0858265013, -0.0329151340, -0.1145974398, -0.1081989184, -0.0477718599, 0.0214173477, -0.2387116551, -0.0698177963, -0.0204801168, 0.0043972400, -0.1418339908, 0.0608079508, -0.0734763667, -0.1845265478, 0.0299821720, -0.0330152400, -0.0225661527, 0.0660254881, -0.1026051491, -0.0895469487, 0.0468066409, -0.1098380163, 0.0106640300, -0.0687723383, -0.0488185175, -0.0007964484, -0.1309486181, 0.0023780325, 0.0441833809, -0.0451129042, -0.0135988630, 0.0808964372, 0.0780963823, 0.0001543011, 0.2556597888, 0.1126155108, -0.0360512137, -0.1886480749, -0.1324167103, -0.0006251544, -0.1913360357, -0.0375181921, 0.0317813680, -0.0776932165, -0.0446184464, -0.0923383683, 0.0231517255, 0.1422497630, -0.0399700701, 0.0145575916, 0.0620055944, -0.1205767468, -0.1270210594, -0.0836491436, 0.0606822297, 0.0453587994, -0.0808544010, 0.0086948909, -0.0094870431, 0.0806690082, 0.1189592034, -0.0181554295, 0.0278922617, -0.0761724338, -0.0730817616, 0.0105320048, -0.0131704528, 0.0123860547, -0.0382067077, -0.0170810279, 0.0322527401, 0.0561269671, 0.0213071648, 0.1271281838, 0.3564178944, 0.3674474657, -0.0300452691, -0.4333956838, -0.1703448147, 0.0837080553, -0.2054176033, -0.1488683522, -0.0879350305, -0.0672524348, -0.1436084062, -0.3451162875, 0.0508825444, 0.0706739202, -0.1135380417, -0.0077611487, 0.0686243698, -0.0605397373, 0.0269447230, -0.0217876788, 0.1327273399, -0.0569602884, -0.1602214575, 0.1426623762, -0.1127264723, 0.1641409993, 0.0719294101, -0.0335344411, 0.0026244309, -0.0185210034, -0.1255132258, -0.0788976699, -0.0150739420, 0.0153064905, -0.1027340591, -0.0368915610, 0.0879846662, 0.0664285719, -0.1085118502, 0.1400980204, 0.1927000135, 0.4779439270, -0.0768399239, -0.4675459266, -0.2105562538, 0.1477077454, -0.1002221778, 0.0800138041, -0.1123522893, -0.0535198823, -0.1012614965, -0.2831965983, 0.1757363975, 0.1247420162, -0.1655932516, 0.0042703501, 0.1039067656, -0.0159371626, 0.0242768787, -0.0557167977, 0.0323668718, -0.0088187661, -0.0264285058, 0.1214458048, -0.0534848459, 0.1779122502, 0.0597941019, -0.0817352757, -0.0425469242, 0.0026017146, -0.0738025680, -0.0129017234, 0.1625491530, 0.0551606342, -0.0324926339, -0.0048221201, -0.0268163476, 0.0486095436, -0.2125403732, -0.1835435182, 0.0264111366, 0.4979556799, -0.3209985197, -0.2654909194, -0.1624609679, 0.0408477969, -0.0727407262, 0.2029245496, -0.0482941009, 0.1678000391, -0.1375708282, -0.0645742416, -0.1086973697, 0.1813880503, -0.2161705941, 0.0552291833, 0.1067711934, -0.0263142809, -0.0426614173, 0.0860200226, 0.0641809553, 0.0562481955, -0.1741377413, -0.0763919204, -0.0805655792, 0.1594407409, -0.1151917428, 0.0483193509, 0.0128377387, 0.0808949769, -0.2003466189, 0.0795135647, -0.0536439605, -0.1653325409, -0.0153849516, -0.0108838771, -0.1068054140, -0.0569665879, -0.4122454226, -0.1864365041, 0.0984839797, 0.1656060219, -0.6068050861, -0.0355565064, -0.1216687784, 0.1192562506, 0.2303240448, 0.1483826339, -0.1284499168, 0.2943407297, -0.0822125599, 0.1187373772, -0.1924504191, -0.0987310037, -0.2497111112, 0.1564407796, -0.1375345141, 0.0123675289, 0.0163792539, 0.0445549265, 0.0625140518, 0.1132795215, -0.1629379690, -0.0859223679, -0.2044066787, 0.0875451788, -0.0618698634, -0.0289366189, 0.1120447740, 0.1431175470, -0.0907948837, 0.0916503221, -0.0340325572, -0.2593989074, -0.1624431759, 0.0819170475, -0.1280622631, 0.1040840670, -0.4858181179, -0.2322852761, -0.2153673768, -0.1231593639, -0.6442151666, 0.3214133084, 0.1426991969, 0.0367902778, 0.0661316663, 0.1874905974, 0.1043395847, -0.2282292098, -0.0063733356, -0.0040109046, 0.0452765860, -0.1461568475, -0.2349800318, 0.1924347579, -0.0584733859, -0.0291818939, 0.1623357683, 0.0855169892, -0.0516435802, 0.1484902054, -0.1138495281, -0.0167495646, -0.3042267263, 0.1832796633, 0.0396645516, -0.0625572577, 0.1160217002, -0.0290984195, 0.0348207764, 0.0759395137, 0.1550498754, -0.2731258273, -0.1367070675, 0.1787981540, 0.0603649914, 0.0742006898, -0.3951445520, -0.3698689342, -0.2173407078, -0.1671554148, -0.4793510735, 0.4606812298, 0.4279480577, -0.1687871665, 0.0504425466, 0.1182030737, 0.1089487523, -0.0654156655, -0.0592327677, 0.0529766157, -0.1203382313, -0.0920883045, -0.2309326082, 0.0007299343, 0.1727062017, 0.0407187827, 0.0896468312, 0.0272537395, 0.0531820990, 0.0861551836, -0.0618171729, -0.0098176077, -0.1522894055, 0.0953521803, -0.0422568880, -0.0491738245, 0.0631391332, -0.0313787609, -0.0036829880, 0.2140725851, 0.1490190178, -0.2581148446, -0.1853512526, 0.0962731093, 0.1560642421, -0.1466307342, -0.3014671803, -0.1560467780, -0.3777126670, -0.3018889129, -0.2800406814, 0.4517747164, 0.3513337076, -0.0924566463, 0.1240284070, -0.0505324602, 0.1178939193, -0.1027005389, 0.0316678695, 0.0110416440, -0.1780786067, -0.1618346274, -0.0377155505, 0.1160427853, 0.1211026609, -0.0385188609, -0.0197357628, -0.0345282108, -0.0835394710, 0.0546985716, 0.0403687209, 0.0248115715, -0.1119964421, 0.0189535245, 0.0506874062, -0.0832075924, 0.0895549282, 0.0391737372, 0.0588336550, 0.1370273530, -0.0262566656, -0.2829019427, -0.2129043937, -0.0078698909, 0.1066200212, -0.0407247171, -0.0949177071, 0.0614463687, -0.3495826721, -0.5184938312, -0.0432447866, 0.4749523401, 0.2497813255, 0.0118170176, -0.0267139934, -0.0824664682, 0.1729457974, -0.1118149906, -0.1129672378, 0.0499789678, -0.1356311142, 0.0878501162, -0.0402031690, -0.0184888523, 0.0473972782, -0.1784288138, 0.0277168229, -0.2826188207, -0.0071934531, 0.0076007745, 0.0145030459, 0.2110614926, -0.1784881800, -0.0079974355, -0.0485204160, -0.1299342662, 0.0469369441, -0.3579368293, -0.0976800546, -0.0542479791, -0.0883563459, 0.0160556622, -0.0896067023, -0.0931866691, 0.0743115544, -0.1936188638, -0.1446978003, 0.2199421674, -0.2459456325, -0.3462847173, -0.0988689810, 0.2464455366, 0.2241950631, 0.0495576933, -0.1666994542, -0.1240128577, -0.1321493089, -0.1088562757, -0.1102336347, -0.6065397263, -0.2185092717, 0.4412351847, -0.3130533695, -0.2740232646, -0.0171956215, -0.3436326087, -0.2189100534, -0.3773284256, -0.2647526264, -0.5185642242, -0.0209609009, 0.4676123559, -0.3025574088, -0.1929856986, 0.0029005529, -0.3548473120, -0.1513499916, -0.3827786446, 0.0142717846, -0.4350136518, -0.0860024095, 0.3791547418, -0.3205627501, -0.4370173216, 0.0494320840, -0.3093521297, 0.0890612379, 0.1477795094, -0.0001645666, -0.2367379218, -0.0742114335, 0.2713442147, -0.1035726517, 0.1310423315, -0.1917211115, -0.1769577414, 0.0327467620, 0.0590999946, -0.1439382136, 0.0477298647, -0.1387398392, 0.0831138417, -0.1325002760, 0.2153594643, 0.0722415149, -0.3003755808, -0.0970569104, -0.1396912932, -0.0329472832, 0.0604527146, -0.1530837119, -0.2192516029, -0.2062538266, 0.2630966306, -0.0531847477, -0.1834662855, -0.1315419227, -0.1265400350, -0.0238480140, 0.0588765033, -0.1273469180, -0.2918810844, -0.2120951116, 0.2485293746, -0.0725979730, -0.2803924084, -0.0068702912, 0.2265401632, -0.1926870048, -0.2682994008, 0.1667008549, -0.0573491603, 0.0283317529, 0.0897901282, -0.0402295887, 0.0003915424, -0.1744897664, 0.0317173451, -0.1535437405, 0.0083438056, -0.1284428388, -0.0554919764, -0.2461427748, 0.0987131447, -0.0369056240, 0.1385424137, 0.0222225767, -0.2255760431, 0.0516200177, -0.0475661941, -0.1118117124, -0.0648034215, -0.1383102685, 0.0882136822, 0.0928136185, 0.0227246005, -0.1650478393, -0.2157078981, 0.0115298070, -0.1131938025, -0.2236852050, -0.0180990566, -0.1150587872, -0.0242401995, -0.0128026325, 0.1435251087, 0.1207120344, 0.2782031894, -0.1070130914, -0.1002894416, -0.0380442850, -0.0934234560, -0.0861489624, 0.1374916732, -0.1049686521, 0.0346177295, 0.0010010714, -0.0022948482, -0.3133408129, -0.2138312012, 0.0219976753, 0.1303006858, -0.0196058396, 0.0368926041, 0.0375421010, 0.1264618486, 0.0882186666, -0.1570780277, -0.1613522917, -0.1445451826, 0.0071306624, 0.1926007271, 0.0266897567, -0.0104397535, 0.1636854857, 0.0852412134, 0.0739303380, -0.1988225132, -0.1280521750, -0.1589978039, 0.0561501868, 0.0825163424, -0.0005628240, -0.0457453318, 0.1433283091, 0.1689054519, 0.0792251229, 0.2588773370, 0.4184342027, 0.1047222093, 0.0875727311, -0.3122826815, -0.1309758574, 0.1934871376, -0.2393689007, -0.2695884407, -0.0780302808, -0.0111769643, -0.3465006649, -0.3025338948, 0.1255717427, 0.0053192033, -0.0424974002, -0.0499698073, 0.1546343714, 0.0781047568, -0.1833789349, -0.1555369943, -0.1021696627, -0.2236644030, 0.0358054005, 0.0676113293, 0.0563575849, 0.0719639659, 0.1963108182, 0.0056652105, 0.0425263159, 0.0021487367, -0.1013522893, -0.0907923877, 0.0099424692, 0.1646181345, 0.1071946099, -0.0662279129, 0.0661382079, 0.1516135484, -0.0652820766, 0.2652634680, 0.4778314233, 0.3919174671, -0.1743129939, -0.4899328351, -0.3349510729, 0.2467605323, -0.1946736723, -0.3163896799, -0.0573652685, -0.3483468890, -0.2904734612, -0.2718809247, 0.2176184952, 0.0705807805, 0.0658427924, 0.0098840827, 0.1910061985, -0.0009603524, -0.1082092896, -0.0309145264, -0.0734631643, -0.3493379354, 0.2340154052, 0.0857731774, -0.0988298133, 0.0807769075, 0.1141924709, 0.1332244724, 0.0324967541, 0.0163230989, -0.2125319541, -0.2366681993, 0.2208495736, 0.0204949360, 0.0489805192, -0.0587502196, 0.0074090576, 0.1410609931, -0.0220582373, 0.0847955272, 0.4659608603, 0.4061773419, -0.1782027781, -0.3925797045, -0.3088838160, 0.0127484612, -0.1007201001, -0.1771431118, -0.0863821581, -0.2576659322, -0.3092202842, -0.1615313441, 0.1789788455, 0.1643322110, -0.1627991498, -0.2920361459, 0.2588785887, -0.0028237628, 0.0709162354, -0.0373098291, -0.2357478291, -0.1689144522, 0.1185974479, 0.2022344172, 0.0006452758, -0.0465947203, 0.0702966750, 0.0221726336, 0.0779898390, -0.1182588637, -0.1929324120, -0.0702888444, 0.1960962117, 0.1332547367, 0.0727821216, -0.0851963311, 0.0167893972, -0.0083380584, -0.3529112935, -0.0109963464, 0.3394412398, 0.3040131330, -0.3048178852, -0.2243403047, -0.3934907019, -0.2134730667, -0.1083451360, -0.0663587376, -0.2149961889, 0.2105663419, -0.1368176043, 0.0596017502, -0.0739704370, 0.1220344007, -0.1118392050, -0.3755083382, 0.1964225769, 0.0682226121, -0.0653707683, 0.2637085617, -0.1958398819, 0.0399102457, -0.0471800640, 0.0082596028, -0.2937986255, 0.1165069938, 0.0279957466, 0.0194542594, -0.1447668970, 0.2075710297, -0.2032024264, 0.0484328270, -0.1540639251, 0.0174270105, -0.0324779302, -0.1057870835, -0.0824604481, -0.0192489550, -0.5145990849, -0.3243471980, 0.2461251318, 0.0317581259, 0.1254755706, 0.1551631540, -0.1128262579, -0.2739029825, -0.0842743143, 0.2045337707, -0.4744551778, 0.1183476001, -0.2964774668, 0.0582073666, 0.0174771342, 0.1267258674, -0.0988111645, -0.0797418356, -0.0011052913, 0.0585839115, 0.0081829187, 0.2422756702, -0.1314255148, 0.0030225832, -0.0036997613, -0.0840344951, -0.1210637689, 0.1817438304, -0.2358608246, 0.0072969948, -0.2061512619, 0.1987225413, -0.1118251756, 0.1649296582, 0.0672438070, -0.3608851731, -0.2503003776, 0.2387000918, 0.0018976608, 0.0525936484, -0.5421889424, -0.5378343463, -0.0566397868, 0.0113655915, -0.3875396550, 0.2001014203, 0.3505085409, -0.2239297479, 0.0573699884, 0.0758538097, -0.0553053655, -0.1178852320, -0.1381412297, 0.0406829417, 0.2316859663, -0.0255556256, 0.0529374331, 0.1708721220, 0.0736249536, 0.1811330169, -0.0070558665, 0.0531590730, 0.0192426145, 0.1630222797, -0.0133467317, -0.1536058038, -0.2094804943, 0.2377337217, -0.0792015195, -0.0621420927, 0.0812711418, -0.0247193836, -0.0060623270, 0.1877205074, 0.1526298523, -0.4453646243, -0.2861545682, 0.1047520936, 0.1403151453, 0.0458666272, -0.4596916437, -0.3711129725, -0.3859500587, 0.0279800575, -0.4844114482, 0.4721166193, 0.3477309346, -0.1874110103, 0.0894872770, -0.0109244455, 0.0112903509, -0.0099879159, -0.0642618835, -0.0027549514, -0.0648686662, -0.1102222800, -0.0262389556, 0.0196680706, 0.1097121537, 0.1117464676, 0.0474492572, -0.0110213980, -0.0768658221, 0.1484178156, 0.0447069444, -0.2151197791, -0.1067666635, 0.1338583380, -0.0493711717, 0.0592262521, 0.0218274090, -0.0313729905, 0.0486535691, 0.1582740694, 0.1211354733, -0.4482579827, -0.1721976995, 0.1787439585, 0.1654799730, -0.0157783870, -0.3289172351, -0.0419485644, -0.5141419172, 0.0102830455, -0.1496704072, 0.4473493993, 0.1768930852, -0.1331757456, 0.2135744691, -0.2167103887, 0.1395725459, 0.0193082877, 0.0266625751, -0.0809873492, 0.0613057092, -0.3209486902, 0.0781617239, 0.0532665439, -0.0121831950, 0.0703375489, 0.1879281104, -0.1161183640, 0.1124402285, 0.0989372805, -0.0348761082, -0.2585439384, -0.0025512096, 0.1573844701, -0.0050586448, 0.0567548946, 0.0290026329, -0.0414666533, 0.0928499848, 0.0123856347, 0.0377300903, -0.3932070136, -0.0398208015, -0.0066658668, 0.0816355869, 0.0023597430, -0.2176020145, 0.1874748021, -0.2860915661, -0.0705392063, 0.1140833274, 0.4786547124, 0.1038067639, 0.0407579020, -0.0081249978, -0.2222792655, 0.3345284462, -0.0632803813, -0.0215606261, -0.2018689215, -0.0614691004, -0.3880922198, 0.0954187140, -0.1799642444, 0.0291557312, -0.0302649215, 0.0898242071, -0.1943496019, -0.0321232341, -0.0313747786, -0.2457357496, -0.1269753426, -0.0984087884, -0.1449250281, 0.1869929433, 0.0197209436, 0.0944665223, -0.2733340859, 0.0602494515, -0.2091732770, -0.1987444609, -0.1294017285, -0.0222337469, -0.2176037133, 0.1508163214, 0.0338813700, -0.1335806698, 0.2449351698, -0.0089702597, -0.2338413894, 0.1148402914, 0.2736737728, 0.1066856384, 0.0002094207, -0.2223934233, -0.2279267758, 0.0639169887, -0.1132650003, 0.2536464930, -0.2268524021, -0.3243570924, 0.0920171216, 0.0364583619, -0.3348178267, 0.0105555961, -0.3027942777, -0.0899358839, -0.1057316139, 0.0806097016, -0.4474975765, -0.3287501335, 0.2862003446, -0.2333637327, -0.2683853507, 0.0212842226, -0.2273218036, 0.0889746919, -0.2593411505, 0.1856873035, -0.3047786057, -0.2454067022, 0.1925414056, -0.1695344299, -0.2856396735, -0.0099158203, -0.4416280985, 0.0851367116, 0.2596147358, 0.1741376221, -0.2753759027, 0.1479227990, -0.0797149986, -0.0096261753, 0.1439567953, -0.1084739938, -0.1661913395, -0.1203597784, 0.2117920518, -0.0445340835, 0.0693979487, 0.0070208996, -0.0060078786, -0.0840241536, 0.0889156088, -0.0775627866, -0.1630954444, -0.1540950090, 0.0745142475, -0.1563550234, -0.1286119819, -0.1830798835, -0.0530135706, -0.3291096389, 0.2263967097, -0.0580757186, -0.0340080336, -0.1989171505, 0.0712777525, -0.0425594598, -0.1290229410, -0.1723662019, -0.0320330821, -0.1821257323, 0.2347728461, 0.0223348849, -0.0762699172, 0.1422160268, 0.3188021779, -0.0585267730, -0.1308052242, 0.1791140139, 0.0051686391, 0.0865556672, 0.2091323882, -0.0707822591, -0.0676880553, -0.1666209996, 0.1080085486, -0.0359776020, 0.0698456764, 0.0796404630, -0.0931606442, -0.1038920209, 0.0979816169, -0.2308474034, -0.0357842110, 0.0858362019, 0.0263203867, -0.2146952152, -0.0964002311, -0.0505571403, -0.0640364215, -0.0227321070, 0.1266194731, 0.0857624114, 0.1268699020, -0.0952574611, 0.0289988350, -0.2254944444, -0.0031233830, -0.0136414263, 0.0439338274, -0.0368778855, 0.0650251061, -0.0041936752, 0.2339033037, 0.1588238180, 0.1485741287, 0.1091048121, -0.0522257164, 0.1451401412, -0.0860932171, -0.1629441082, 0.0411274210, -0.2141767740, -0.2113180310, -0.0381270610, 0.0374834314, -0.1800453365, -0.0462322123, 0.0278141480, 0.0113153812, 0.0933782682, -0.0772999972, -0.0742654353, -0.0232314318, 0.0601553358, -0.1061308682, -0.2647679448, -0.3303316534, 0.1625784934, 0.1426376849, 0.1187179461, 0.0882411823, -0.0072350730, 0.0926845893, 0.1834441423, -0.0351924822, -0.1705253869, -0.2207033038, 0.0141979186, 0.0300768670, 0.1059791371, -0.0443919934, -0.0480208471, 0.1720327586, -0.0473971404, 0.0895935148, 0.5365358591, 0.0254893694, -0.1032791361, -0.1707181185, -0.3522435129, 0.0950843319, -0.0973238125, -0.4193476439, 0.0893021822, 0.0644640550, -0.1733016074, -0.1116558686, 0.1494354606, -0.0304319635, 0.0188009758, -0.1486593634, -0.0223177876, 0.0800154805, 0.0215643570, -0.0567307882, -0.2235833853, -0.1878046989, 0.1121281907, 0.1546159983, -0.0182699375, 0.0766511932, 0.0221060421, 0.1475798637, 0.0366286375, -0.0212031938, -0.2046449333, -0.2996871173, 0.1672743112, -0.0158009138, 0.0647505745, 0.0135022607, -0.0605910271, -0.0034766470, -0.0931501240, 0.1511345059, 0.6474254131, 0.1455343962, -0.1946217716, -0.3231726587, -0.3099141419, 0.1730013788, 0.0750454292, -0.3797500432, -0.0304348506, -0.2928680480, -0.1817922145, -0.2022480518, 0.2418877482, 0.0386258364, -0.0787209794, -0.1973564774, -0.0013907425, 0.0730788410, 0.0477760434, -0.3681520820, -0.2191313952, -0.1750933975, 0.2205195278, 0.1223155558, 0.0079678390, -0.0136738550, 0.0261583813, 0.1139448136, 0.0357802771, -0.3383779228, -0.1538738906, -0.2297225296, 0.3151265085, 0.0751453415, 0.0711477101, -0.0083325775, -0.0893370658, 0.0080411220, -0.2090496123, 0.1646897942, 0.4023173153, 0.0635346100, -0.2702948749, -0.2698538601, -0.5353000164, 0.0591657534, 0.3060641587, -0.2590805590, 0.0019671610, -0.2505937219, -0.1254639477, -0.1454392225, 0.1711802036, 0.0542714000, -0.0270256344, -0.4745127857, 0.0851894617, 0.0960670859, -0.0872403830, -0.0620482489, -0.2635230124, 0.0565401018, 0.1743861735, 0.0672837719, -0.0572290383, -0.3077403903, 0.1015529931, 0.0345948562, 0.1026378125, 0.0038162558, -0.1872171909, 0.0466762967, 0.2386815697, 0.0628551543, 0.0751345754, -0.2626775205, 0.0717946440, -0.1329553723, -0.4743031263, 0.0254576467, 0.1654306799, 0.1345910579, -0.1911785752, -0.0951227024, -0.5849924088, -0.0095908633, 0.0013451850, 0.1437303722, -0.2281121314, 0.0401754715, 0.0152274286, -0.0100903530, 0.1581100225, 0.1471877694, 0.0203398168, -0.5294487476, 0.1687628329, 0.1052100286, -0.2412837446, 0.1333480477, -0.1733069122, 0.0863363072, 0.0276054312, 0.1215581223, -0.1574970484, -0.3049116731, 0.1086185426, 0.0455124490, -0.3320713937, 0.1449029148, -0.1517061740, 0.1816555560, -0.0338541381, -0.1394335777, -0.0871702805, -0.1999311894, 0.0777394101, 0.2022473216, -0.4129358530, -0.7033250928, 0.1203806922, 0.1620070934, 0.0406377092, 0.0578220040, -0.0756407008, -0.0266619436, -0.2105110735, 0.0438263714, -0.4173747301, 0.2274042964, -0.0414325483, 0.0002776097, 0.0727107897, 0.0191558208, 0.0327542536, -0.1835751981, 0.0789114460, 0.0712807924, -0.2433437556, 0.1741016954, -0.1872287244, 0.1258894950, 0.0292106476, -0.1880615652, -0.0030838596, 0.0483483374, -0.1312634647, 0.0963786840, -0.1943678111, 0.1546558738, -0.0442419462, -0.0593733564, 0.2328205556, -0.3607615530, 0.0104474295, 0.1944176406, 0.1053314433, 0.0000452454, -0.0753436014, -0.6657739878, 0.0532514639, 0.1119079515, -0.3428166807, 0.3183192313, 0.3381382525, -0.4237908721, -0.1221751943, -0.0617218725, -0.0326687656, -0.1448771209, -0.0765988380, 0.0679828897, 0.2933038473, -0.1322563291, 0.0105515681, 0.0260150172, 0.0173202492, 0.0237965621, -0.1047722772, 0.0476823859, -0.0123518007, -0.0194842219, 0.1310838312, -0.2581167817, -0.0893951058, 0.0850103274, -0.0804449841, 0.1680255234, 0.0884056538, 0.0270252172, 0.0618775710, 0.0690090731, 0.2541117072, -0.2787752450, -0.1085878164, 0.0998837650, -0.0150601827, 0.0244551897, -0.3811325729, -0.3066417277, -0.1537467688, 0.1328314096, -0.3051463366, 0.1809428334, 0.1813511252, -0.1368847787, 0.2515759468, -0.3872795701, 0.0768669024, -0.2658598423, 0.0037412150, 0.0528204702, 0.0905226469, -0.0859503150, -0.0907330811, 0.1366241574, -0.1156794131, -0.2043204904, 0.0109698800, -0.0740125254, 0.1148749888, -0.0110906111, 0.1572072953, -0.2663374245, -0.1907514781, 0.1385620236, 0.0134482011, -0.0021079665, 0.0567385666, -0.0978933275, 0.0938553810, -0.1142288297, 0.0227333009, -0.3072614670, -0.1254645437, 0.1195528433, -0.0588010624, 0.0999161750, -0.4080170095, -0.0478592962, -0.4347781837, 0.1673146039, -0.0567049943, 0.0829936117, 0.1715694070, 0.1912083179, 0.1250797510, -0.6138245463, -0.0294204112, -0.2523763180, 0.0550605394, -0.0909491405, 0.1434710175, -0.0217165016, -0.0169419292, -0.0216671638, -0.1010074466, -0.0051444583, 0.0194180142, -0.1840836853, -0.0257400386, -0.1450064480, 0.1008296534, -0.3518067598, -0.0984099209, 0.0564962700, 0.1549795121, 0.1266250312, 0.0688097030, -0.2216506153, 0.0232028048, -0.1553797573, 0.0461579263, -0.3870711327, 0.1597518623, -0.0871579349, -0.0192886591, 0.0585015528, -0.3164788783, 0.1019304246, -0.0250997655, 0.0987035632, -0.0239826143, 0.2288282812, -0.1419949532, 0.1003915220, 0.0312746316, -0.4402276576, 0.2057506591, -0.1373148113, -0.0669708699, -0.1541378796, -0.0522035584, -0.2001298964, 0.1096040606, -0.0765402392, -0.1809220314, -0.0083407089, 0.2028505951, -0.2259720862, 0.0459505096, -0.3452927768, -0.0394776128, -0.3574253023, 0.1036039218, -0.1465169638, 0.1647692770, -0.0419398807, 0.1799757332, -0.1837151945, -0.0186719075, -0.1170757785, -0.1042234972, -0.4263692498, 0.2255195528, -0.0888143554, 0.0348030701, 0.0162968542, -0.3258284926, 0.2354930043, 0.1714216620, -0.0679627061, 0.0700774714, 0.2403014004, -0.2402775437, 0.1309832036, -0.0217567999, -0.1963871419, 0.1031413153, -0.0674948320, 0.3248163164, -0.0815964937, -0.2943159044, -0.1637227088, 0.0089047914, -0.2440167069, -0.0992400721, -0.4908072054, 0.0547377430, -0.1079568788, 0.3182674348, -0.2086910903, -0.2046186030, -0.3101695478, -0.0121953981, -0.1532133818, 0.1378488243, -0.2690569162, 0.1565659791, -0.2160069942, 0.3674099743, 0.0256307274, -0.3575898111, 0.0033239417, -0.0849310681, -0.2526284456, -0.1219167784, -0.4885522723, 0.0137910871, 0.1316106468, 0.0268262941, -0.1870813817, 0.0327924490, 0.0265533812, -0.0462935567, 0.1244020835, -0.1644986421, -0.1577116847, -0.0866981745, 0.1516290456, 0.0751682892, 0.1743078530, -0.0417816937, -0.0655303746, -0.1225543097, -0.0621612519, 0.0039981827, -0.1873764694, -0.2373828590, 0.1567079127, 0.0146623012, 0.1229241118, -0.0345491692, -0.1149108037, -0.2351471931, 0.0823405683, -0.0707074106, -0.0611423254, -0.1571199745, 0.1124449745, 0.0284675006, 0.0504839122, -0.0344913453, -0.1160370484, -0.2419370860, 0.0478547923, -0.1337397397, -0.1676246971, 0.0570105165, 0.2051118612, -0.0750498623, -0.1326223314, 0.0530238934, 0.0113969538, 0.0555576757, 0.0868939385, -0.2324592322, -0.0883440226, -0.1410980821, 0.0471042655, 0.0986459926, 0.2190448940, -0.0877210498, 0.0890153795, -0.2553862631, -0.1193385273, -0.2559331656, -0.0237166528, 0.0635650381, -0.0335499421, -0.1041780859, 0.1161432415, -0.0265853293, -0.0944360569, 0.1102908105, 0.0293932203, -0.1625458002, -0.0060319114, 0.1188404113, -0.0321087986, -0.1357508898, -0.0115452958, 0.0678225160, -0.1180461347, -0.0661816448, 0.0064184857, -0.2587040067, 0.0418554582, 0.1078573912, 0.2180482894, 0.0285346508, -0.0959304199, -0.0687044635, 0.1258894503, -0.0502241515, 0.1572473347, -0.0900340304, -0.1902261376, -0.0597580485, -0.2873397768, 0.0609894060, 0.0925999582, -0.0107133519, 0.0971101075, 0.0071200235, -0.1797219366, -0.0572466329, 0.0329775847, 0.0219777450, -0.1422714293, -0.1900661886, -0.1198320985, 0.2223959118, 0.0692363828, 0.1208263785, -0.0790394992, -0.1509916931, 0.0817493349, 0.1148313954, -0.1813873947, -0.0585647449, -0.1162797883, 0.1929435432, -0.0461612828, 0.1438458860, -0.0180436373, -0.1507796049, 0.0899233744, -0.2211664766, 0.0515043102, 0.1503989846, 0.0364820622, -0.1220911667, 0.3022488952, -0.3511626422, 0.1772258282, -0.0503693745, -0.3765688539, 0.0257448331, -0.1261221170, -0.0285746735, -0.0695296079, 0.1143225655, -0.0737773925, 0.0430464074, -0.0561277978, -0.0128482925, 0.1160066798, 0.0754101947, -0.1235492826, -0.3155395687, -0.1796426028, 0.2463636845, 0.1139048636, 0.0609596744, -0.0708049014, -0.2024523616, -0.0134712551, 0.0871505439, -0.0684071034, -0.0813672841, -0.2133534253, 0.1013602987, -0.0413418934, 0.1071707606, 0.0585212559, -0.0956647396, 0.0016042200, -0.3064846992, 0.2089560330, -0.0483089425, 0.0282530542, -0.0774747059, 0.2202704251, -0.3934055269, 0.0788206309, 0.1841684580, -0.4355980754, 0.0610286258, -0.1591402143, -0.1270957142, -0.0473132357, -0.0074122315, 0.0460531823, 0.0445012338, -0.1278278381, -0.0617168732, 0.0900249556, 0.1092996523, -0.2237119973, -0.2089905888, -0.0547912344, 0.1155705079, 0.0603289902, 0.1420415491, -0.1798270792, -0.1845955402, 0.1280591786, 0.1070011109, -0.1455264837, -0.0362808518, -0.1281206608, 0.1205049306, -0.0564538464, 0.1107240766, -0.0561781451, -0.0851057991, -0.0422850437, -0.4736436307, 0.1004121378, 0.0884310603, 0.0241424795, -0.1456515640, -0.0580068976, -0.6811442971, 0.0736058950, 0.1531064212, 0.0353766903, -0.0366301052, -0.2738735974, 0.0018620800, 0.0603809841, 0.1192403212, -0.1005988345, 0.0148658808, -0.1922168583, -0.0505274162, 0.1253918260, -0.1102965623, 0.0143689681, -0.0206308961, 0.0233039092, 0.1055509225, 0.1004847437, 0.0180211458, -0.3676738441, 0.0098240850, 0.0055995868, 0.0350961164, -0.0040397742, 0.0851042122, -0.1213241667, 0.0995380431, -0.0919533372, 0.1219907850, -0.2942056656, 0.1050347835, 0.0036790639, -0.3834643066, -0.2214223593, 0.0425830148, -0.0377734713, 0.0589392819, 0.0210588593, -0.5104262233, -0.0914555416, -0.2068401575, 0.4740860462, -0.2413025200, 0.1163602173, -0.0071701980, 0.0738369450, 0.0876007155, 0.0213193372, 0.0830899999, -0.2429262847, -0.0064219786, -0.0196882691, -0.3939884901, 0.1889085174, -0.0381565765, 0.1279370189, 0.1764613539, 0.0079248641, -0.0908460319, -0.2702886462, 0.0972005352, 0.0280676987, -0.3231516778, 0.1748264283, 0.0819080994, 0.0081520649, 0.0243781190, -0.1785391420, 0.0749952868, -0.1305566728, 0.0902909711, -0.0698300973, -0.2262391001, -1.0849167109, -0.1249163151, 0.1215002909, 0.1790249944, 0.2834601998, -0.0597411767, -0.2482500970, -0.2773161232, 0.1868258268, -0.2981328964, 0.2028401643, 0.0055925245, -0.0264419857, 0.1868160516, -0.1484801322, 0.1084014699, -0.1036602110, 0.0207231548, -0.0520726182, -0.2568979859, 0.1789049208, -0.1095469743, 0.0326946527, 0.1902579814, -0.1719639599, -0.0457944386, -0.0513339266, 0.0572199151, 0.0978597999, -0.1428429931, 0.0800035521, -0.0663572475, -0.1992474496, 0.1393505037, -0.1591237932, 0.0391250364, -0.0244802181, -0.0830186233, 0.0533346534, -0.0220495015, -0.6775042415, -0.0132911634, 0.2054351270, -0.0697232261, 0.0743850395, 0.0836409107, -0.2914075553, -0.0472627170, -0.2007708400, -0.1214439347, -0.3334776461, -0.0613859072, -0.0409914218, 0.1433506757, -0.0170039479, -0.0185192153, 0.0667003840, 0.0899928585, -0.0080867158, 0.0095453318, -0.0611669570, -0.1280763298, -0.0756354183, 0.2280735821, -0.2303423285, 0.0031785846, 0.1294580698, 0.0099046258, 0.1110555381, 0.1000167131, -0.2581981421, 0.0020071007, 0.0060856435, 0.1477237344, -0.1187643111, -0.0823183954, 0.1059513912, -0.0829536468, 0.1374347657, -0.0478557907, -0.0629687607, -0.1480390728, 0.3081453443, -0.2244114280, -0.0129167652, 0.1811127663, -0.0304074474, 0.2799846530, -0.7445627451, 0.0116755301, -0.3383710980, -0.0777555555, -0.0048647299, 0.0378619134, 0.0803452358, 0.0486426540, 0.1905691326, -0.2074016929, -0.2064896226, 0.0204792600, -0.2960830331, 0.0075705238, -0.0380382054, 0.0822960809, -0.1001287103, -0.0419877581, 0.2007534653, -0.1201095358, 0.0520089306, 0.0941850990, -0.2192031145, 0.0083603757, -0.0645816252, -0.0146723483, -0.1485357136, 0.1018149108, 0.1843847930, -0.1798345000, 0.1036017388, -0.1929719746, 0.1263018996, -0.0129149165, 0.1367108524, 0.1459115744, -0.1560457498, 0.0501554981, 0.0685594380, 0.1494619995, -0.5850359797, 0.0281408671, -0.1542706043, 0.1566563249, -0.0901456624, -0.0339423381, -0.0221204348, -0.0038701098, 0.0523560457, -0.1325505823, -0.0788405016, 0.1781554669, -0.1773867011, -0.0617016666, -0.1306905448, 0.0491303951, -0.0800954551, 0.0593077317, 0.0833823010, -0.2228924483, 0.0121413898, 0.1223330349, -0.1224608421, -0.0047584283, -0.1072595641, 0.0026245161, -0.1282015890, 0.1815122962, -0.0925963223, -0.1899525821, 0.1057631969, -0.2506668270, 0.1602028608, 0.2830839157, -0.0061329780, 0.2260669172, -0.1233615652, -0.2452908605, 0.0047356570, 0.1807181835, -0.4362794459, 0.0326935053, -0.0803711414, -0.0082369391, 0.0039376961, -0.1267441213, -0.0913765356, 0.0074653770, -0.0291366372, -0.0846669823, -0.1382419616, 0.1728573143, -0.2062751949, 0.0248110779, -0.0427196026, -0.1192816719, -0.1465384811, 0.0430505499, -0.1293214262, -0.1830421090, -0.1406415701, 0.1307886839, -0.0957068577, 0.1388955712, 0.1011556908, -0.1255493015, -0.0902641863, 0.1530402154, -0.2120357901, -0.1687547863, -0.1580036730, -0.3803701997, 0.1725696921, 0.3253515363, -0.1132658049, 0.1528973877, -0.0652401969, -0.2855480909, -0.0228146873, 0.0242454000, -0.0974142700, 0.0241603963, 0.1100798547, 0.1842382848, -0.0428150892, -0.1932156533, 0.0136731938, 0.0354461260, -0.3141919374, -0.0346712954, -0.3820714653, 0.1829791665, -0.0891469568, 0.2712409198, -0.1696799695, -0.3268950880, -0.1733769029, -0.0172867384, -0.2948427498, -0.2222244442, -0.3721666336, -0.0079083173, -0.1075989380, 0.3074939847, -0.0813192353, -0.2184473872, -0.1131422967, 0.0352637134, -0.2119154334, 0.0313814655, -0.4425571561, -0.0138699003, 0.1250532269, 0.0624734797, -0.0980847850, -0.0103985490, -0.0304322690, -0.0898713395, 0.0548829548, -0.1355393678, -0.1521284431, -0.2013421357, -0.0098284194, -0.1582404822, 0.2798753381, -0.0583724342, -0.1076186895, -0.1141362861, -0.0009856040, -0.1235469654, -0.1730086207, -0.0717293173, 0.0299916696, 0.1050862223, 0.2637397349, -0.1078565642, -0.1928269416, -0.2038063556, -0.0725354403, -0.1348051876, -0.0823821947, -0.0839311257, 0.0362468772, 0.1706574857, 0.2793263197, -0.1583282202, -0.0555291772, -0.2154794335, -0.1409948766, -0.2204586565, -0.0134662054, 0.0944432616, 0.1598347872, -0.0783676729, -0.1530657411, 0.2232152671, -0.0588993207, 0.0884027109, 0.0673407689, -0.2018867582, -0.1622863114, -0.1392814815, -0.3137583435, 0.0725747347, 0.2126183212, -0.0677487552, 0.1024515033, -0.4398182333, -0.1245119646, -0.1149660870, -0.1495151520, 0.1522764713, -0.2176346630, -0.0191481579, 0.0580115505, -0.0862198323, -0.0590069368, -0.1054252684, -0.0728805587, -0.2041977495, -0.0839315504, 0.1606179923, -0.3305193484, 0.0721434131, 0.0433876477, -0.0269460324, 0.0158915371, -0.0936869979, -0.1376231313, -0.2631850839, -0.1092519686, 0.0032054770, 0.0854211152, -0.1929205805, -0.0547909178, 0.2194704115, 0.1602151096, -0.0343166068, 0.0601865947, -0.1992113590, -0.1449563652, -0.0537824333, -0.3771631420, 0.0573658720, 0.1646825522, -0.2358648032, 0.1755730808, -0.1614683867, -0.2107926458, -0.0712922439, -0.0867369473, 0.1227590442, -0.3147407770, 0.0034219399, 0.0484896526, 0.1357605159, -0.0347309783, 0.1473018676, -0.0151598016, -0.0664783791, 0.0712755844, 0.0634955317, -0.3327570856, -0.0208653454, -0.0491579250, 0.0071807378, -0.1343531758, 0.0013486403, -0.0913415253, 0.0117367208, -0.0396844372, -0.3043214381, 0.0960175022, -0.0812042281, 0.0314491428, 0.1620478481, 0.4019465446, -0.3674486876, 0.1454242319, -0.2252030522, -0.0769419074, -0.0700281188, -0.0897657797, -0.0001699109, -0.0007080803, -0.1434701383, -0.0011886682, -0.0682989135, -0.1200189665, -0.1556106806, -0.0056879250, 0.0830537081, -0.0694745928, 0.0096442774, -0.0270931609, 0.1170987636, -0.0687986612, 0.2020143420, -0.0321101174, -0.1741451919, 0.1282878369, 0.1757257432, -0.0483408310, 0.0148260575, -0.1474002600, 0.1064784974, -0.1818140596, 0.1374345720, 0.0430792570, 0.0853330866, 0.0573708415, -0.3805810809, 0.1720082015, 0.0157118198, 0.1499043256, -0.1773411632, 0.4338694811, -0.5065647960, -0.0434537493, -0.1864511818, 0.0755771101, 0.0759161413, -0.0772690997, 0.0279859304, 0.0012356426, -0.1246433780, -0.0179316979, 0.1759677231, -0.2705030143, 0.0699405894, 0.0667907596, 0.1075246632, -0.2083066404, -0.0716567859, -0.0379944593, 0.0345032886, -0.0265279431, 0.2182404846, -0.0600944087, -0.0528360978, 0.0734051615, 0.1993411481, -0.1142080650, 0.1329834610, -0.1540082991, -0.0287048165, -0.2340519726, 0.2714709342, -0.0949144736, 0.2327780277, -0.0719225630, -0.4686402380, -0.0605669431, -0.2385610193, 0.3993964195, 0.0637990981, 0.4536070228, -0.6443265676, 0.0673887804, -0.0921797529, 0.2341039032, 0.0615014061, -0.1385368556, 0.0979413688, -0.1593341231, -0.1476602405, -0.0555340052, 0.1610975713, -0.2008596808, -0.0126126399, 0.0221953653, -0.0337425247, 0.0090743313, 0.0029531899, -0.0589740947, -0.0430665389, -0.1376826614, 0.1110804677, -0.1398822516, 0.1430018097, -0.0725766793, -0.0130426800, -0.0753848180, 0.1534150243, -0.1975328028, -0.1107176021, -0.1745968759, 0.1265638024, -0.1368586719, 0.2228652388, -0.2155589908, -0.1884687543, -0.4371028841, -0.2746821046, 0.4032623470, 0.2059917897, 0.4425865412, -0.3858819008, -0.1621859968, -0.4546351731, 0.4503442347, -0.0804469660, 0.0905785263, 0.0358060449, -0.0752785876, 0.0476604663, -0.0157001633, 0.1198184937, -0.0824307129, -0.0859003738, -0.1463850439, -0.3079460859, 0.1411768198, 0.0625986233, -0.0360983983, 0.1772188395, -0.1016794518, 0.0191930030, -0.0598854907, 0.0799463093, 0.0403070748, -0.2138801515, 0.1730972379, 0.1644460559, -0.1488667876, 0.0142158298, -0.2183832824, -0.0106872497, -0.0335835107, -0.0464086570, -0.0314676799, 0.1119589657, -0.6600472927, -0.1189686432, 0.3758125901, 0.0802183002, 0.3166708350, -0.1905481070, -0.4638668895, -0.4338329136, 0.2698291540, -0.1428103298, -0.0018676009, -0.0941699967, 0.0181068107, 0.0278096963, -0.0106715243, 0.0179154426, -0.1577971578, 0.0513538085, -0.0803872645, -0.1150377393, 0.0462861396, -0.0128739402, -0.0900471583, 0.1144867092, -0.0544119030, -0.0498870276, -0.0605411269, -0.0928450003, -0.0480765663, -0.0913718417, -0.1747904122, 0.0780014619, -0.0951481164, 0.0991887376, -0.1444482356, 0.0762181655, -0.0163526982, -0.1144990921, 0.1188157648, 0.0017305441, -0.2041723728, 0.0257949028, 0.3517812788, -0.2241455168, -0.0186384656, 0.0673207790, -0.3176444471, -0.1118516773, -0.2634434700, 0.0839964226, -0.1322318763, 0.0611143969, 0.0408216678, -0.1433646530, -0.0510695986, 0.1611709446, -0.1419841200, 0.0458341390, -0.1583870649, 0.0660400838, -0.1279686540, 0.0347519442, -0.0437976234, 0.1449080855, 0.0451289676, 0.0717669502, 0.1392190158, -0.1298012435, 0.0526646301, 0.0412659049, -0.2240205854, 0.0956369191, 0.0140691185, 0.0057399431, 0.0735012963, 0.0626518205, -0.0148299867, -0.0879556537, -0.0777983889, -0.0712123513, 0.1631023139, -0.0322921760, 0.1063531339, -0.0657140017, -0.1826926023, 0.0492589548, 0.0004308636, 0.2170885950, -0.6496133804, -0.1630431116, 0.0532827042, 0.0571142733, 0.0558135360, -0.0239261705, 0.1196668968, 0.0898808688, -0.0538414828, 0.0079480922, -0.0975072682, 0.0407267287, -0.1162414551, 0.0733008534, -0.0073715323, 0.0908183530, 0.0353079289, 0.1030279621, 0.2172283679, -0.1604362875, 0.0871516615, -0.0084144818, 0.0279795658, 0.0864744931, -0.0916151255, -0.0995978117, 0.0006421539, -0.0047084866, 0.0859875455, -0.1309996098, -0.0533004291, 0.0626115352, 0.2827417552, 0.1764605194, -0.2159656286, 0.1450498253, -0.3783972859, 0.0493048653, 0.2306349576, 0.1004986838, -0.4806818962, -0.1079273522, 0.0204614624, 0.0005276789, -0.0142910685, -0.0227749590, 0.0564507656, -0.0673914179, -0.1007516757, -0.0678602457, -0.1150604710, 0.1302219629, -0.0721708462, -0.0698427558, 0.0410251580, 0.0500852987, 0.0267069079, 0.0065380745, 0.0434007011, -0.1351328641, -0.1160304844, 0.0975884497, -0.0226883851, -0.0886772946, 0.0568840168, -0.1164977774, 0.0514830723, 0.1248618290, -0.0104375491, -0.0752696469, 0.0013996615, -0.1486051977, 0.1993363947, 0.2767361104, -0.3069954216, 0.1038027927, -0.2574975789, -0.0140776373, 0.0648855418, -0.0139324041, -0.2445026189, 0.0234838463, -0.1002992764, 0.0896913633, -0.1184092239, -0.0870844573, 0.1292928904, 0.0282685291, -0.2106719315, 0.0120168701, -0.1643999368, 0.0492385998, -0.1505886316, 0.0642812327, 0.0382373445, -0.0891418457, 0.0264612958, 0.0501358956, -0.0900752246, -0.1037543491, -0.0768696964, 0.0323783718, -0.1532689780, -0.0740511715, 0.0672896355, -0.1792654246, 0.1071197912, 0.0567620508, -0.3199489117, -0.0025196751, -0.2765446603, -0.2527099848, 0.2390728295, 0.4298635721, -0.3642948866, 0.1129002720, -0.1030456945, -0.0253750719, 0.1113398075, -0.0867206678, 0.0025787798, -0.0493178852, -0.0075703883, 0.1747010946, -0.2543851733, -0.1533598155, 0.0804303512, 0.0328004062, -0.0835404024, 0.0344168171, -0.2755204439, 0.0539271235, -0.0523988754, 0.2081850767, -0.0455577560, -0.1684688330, -0.0484485440, 0.1279250830, -0.1881547868, -0.0146300998, -0.3543787301, -0.1236536801, -0.0331120603, 0.1887875944, -0.2797891200, -0.2470044345, -0.0205954034, -0.0107931364, -0.2399670035, -0.0526140854, -0.2200580686, 0.1223981977, 0.1667568982, 0.1119742393, -0.1659557372, 0.0497836322, -0.0593575351, 0.0116656758, 0.1440198421, -0.2087328136, -0.0120826885, -0.0627303123, 0.1356992722, -0.0132049834, -0.0081079761, -0.0459636934, 0.0839551985, -0.0920933783, 0.0692942664, -0.1068503484, -0.2921978831, -0.0938371345, -0.1399435103, 0.0840785727, 0.1706802994, -0.0035750140, -0.0823646337, -0.2925571203, -0.2217240483, -0.2256045640, -0.1605549753, -0.2078615278, -0.0766612291, 0.0668708384, 0.1194616184, -0.0856281519, -0.0138566345, -0.2702389061, -0.1274392158, -0.2683879137, -0.2244721353, 0.1853394955, 0.1733727753, -0.1378001571, -0.1537932903, 0.0411365405, 0.0327294581, 0.0819111690, 0.0890360922, -0.1766261756, -0.0313404687, -0.1593227386, -0.0083477944, -0.0958833322, 0.0795595124, -0.1654469669, 0.0097474502, -0.3329002261, -0.0326688811, -0.0926643983, -0.1528760493, -0.0030218456, -0.4116979539, 0.1357330978, 0.1298577040, -0.1178387702, -0.0880963877, -0.1386776268, -0.0738793314, -0.0191724971, -0.1939984411, 0.1012492552, -0.2975987196, 0.0579101183, 0.1894359142, -0.2072723210, 0.0239627063, -0.1968919486, -0.0685975775, -0.0310699865, -0.1223213226, -0.0285464507, 0.2906467617, -0.1790841222, -0.1996173859, 0.0803651288, 0.0336725861, 0.1048167646, 0.1429782361, -0.2200677097, 0.0149634657, -0.1648089290, -0.0118115442, -0.0323778056, 0.0806593373, -0.2549764812, 0.0698704720, -0.2731682956, -0.2299492359, 0.0625544414, -0.0856661871, -0.0367795154, -0.1470030248, 0.1250468642, 0.0730924606, -0.0511915721, -0.0646247491, -0.0514919534, -0.1761868149, -0.0058705448, -0.1273860931, 0.1132532284, -0.0271384213, 0.1901035458, -0.0457185432, -0.1016297564, -0.0527050905, 0.0237347055, -0.1910420954, 0.0472710654, 0.0223652590, -0.1618877649, 0.3025394678, -0.1130949184, 0.0912326500, 0.0905766115, 0.2510228157, -0.0970585942, 0.0751194209, -0.2883184254, -0.1120797619, 0.0421344526, 0.0323210023, 0.0382691547, 0.1465675682, -0.2719047666, 0.1078438163, -0.0502820164, -0.2127870172, -0.0619638003, -0.1117115915, 0.0967902318, -0.0531645194, 0.0697554946, -0.0426132903, -0.1932649314, 0.0241549108, 0.1990585178, -0.2087586969, 0.0510145091, -0.0253199674, 0.1246023625, 0.0459728949, 0.1327596903, -0.0344672576, -0.0873999372, -0.0701514706, 0.1458614320, -0.0624020733, 0.1445343345, -0.0812911093, -0.3486640751, 0.0817479640, -0.2844735980, 0.1772723496, 0.0918685943, 0.2237164825, -0.3841733336, 0.0720502958, -0.3030742705, 0.1190883666, 0.1704261005, -0.0199831966, 0.0387510620, 0.0222896263, -0.3403298259, -0.0094678951, 0.1011500731, -0.1976598948, -0.1428272426, -0.2582491338, 0.0860863253, 0.0194616262, 0.1173319146, -0.2314613909, -0.1556309909, -0.1190547645, 0.1130435318, -0.1995028257, 0.0301963184, -0.1615875661, 0.1653926373, 0.0292261578, 0.1973622590, -0.3110806942, -0.1038636416, -0.1177354008, 0.2485330403, -0.0916916803, 0.0925156921, -0.1484671533, -0.3379678130, 0.0565772466, -0.1945242137, 0.2433355153, 0.1235237643, 0.2828631699, -0.3154849708, -0.0792722777, -0.2903062403, 0.1734702140, 0.1476605684, -0.1380841732, 0.0527465604, -0.0408782139, -0.2823488414, 0.0233440232, 0.2093291581, -0.1710562557, -0.1060976684, -0.1728282720, 0.1387583613, 0.0390891656, 0.1606613845, -0.2317087054, -0.1779241413, -0.0401762873, 0.1399803609, -0.0693195164, 0.0155661656, -0.1273866296, -0.0079479115, 0.1399444044, 0.1340826899, -0.2855854332, -0.0707724243, -0.1397638619, 0.1767998785, 0.0140757496, 0.1600480527, -0.1707970053, -0.0415495597, -0.0269806199, -0.2197991014, 0.1719209254, -0.1432498842, 0.2169635892, -0.2723404169, -0.4213053584, -0.3316386938, 0.3367097378, 0.1392226517, -0.1339270771, -0.0487516560, 0.0164072942, -0.2169432491, 0.0212674420, 0.1661213785, -0.0866864920, 0.0082067959, -0.1617801189, -0.0376931131, 0.1688271016, 0.1597177982, -0.1658323854, 0.0243065953, -0.1863913983, 0.1409947425, 0.0645720437, -0.0304271765, -0.0274207629, 0.0127057098, -0.0062332437, 0.1164778322, -0.1589577794, 0.0649861172, 0.0015097238, 0.1304856688, 0.0689550787, 0.0186861400, -0.1019383296, 0.1244747564, -0.3560474813, -0.0544977784, 0.2033397853, -0.4679656625, 0.2059955299, -0.0579635575, -0.3093801141, -0.0846772715, 0.1573630124, -0.0634407923, -0.1377804875, -0.0519969463, 0.0532491729, -0.0136860004, 0.0472971424, 0.2281048149, -0.3103201389, 0.0435969532, -0.2690233886, -0.1404739916, 0.0567966476, 0.0999225900, -0.0184960999, 0.0512332469, 0.0240841210, 0.0849991515, -0.0521283783, -0.0845682323, 0.0042703124, 0.1033669338, -0.1539076120, 0.1118493453, 0.0802825615, -0.0533314906, -0.0384281650, 0.1704490185, -0.0562324077, -0.0171231665, 0.0032609710, 0.1334564090, -0.0411946326, 0.2075691521, 0.0718649328, -0.4428332150, 0.0709154084, 0.0818753913, -0.2877058089, -0.0924604759, -0.1223335713, -0.1130668372, 0.0465958193, 0.0638355762, 0.0923325196, -0.1264333129, 0.0859612375, 0.1489812285, -0.1901753396, 0.1512830108, -0.2795645893, -0.0640895292, -0.0746921152, 0.0550517030, 0.1075549573, -0.0781029239, 0.0095203845, 0.0859549120, -0.1111230403, -0.0810177997, -0.0454908870, -0.0261388049, -0.0330996104, 0.0616732687, 0.1367974579, -0.0800401270, 0.1432449371, 0.1447136849, -0.0772349536, -0.0688608065, -0.0914851204, 0.0915139318, 0.1914269924, 0.3226754963, -0.0529153869, -0.2386950254, -0.1240175515, 0.0400580429, -0.1842692941, 0.0052350452, -0.2861443162, -0.1785827428, 0.1555481106, 0.0380374342, -0.0214518011, -0.1551515013, -0.0059940843, 0.0169895515, -0.2447900027, -0.0177439563, -0.0130758435, 0.0564765856, 0.0572138503, 0.0838714540, 0.1128653958, -0.0479140580, 0.0167016946, 0.0028532485, -0.1202548221, -0.0391480625, -0.0242603216, -0.0395432524, 0.0544440039, 0.0380019061, 0.0221221875, -0.0555705950, 0.0829475597, -0.0327268466, -0.0891390219, -0.0007750134, 0.0861314461, 0.0350469388, 0.1730098575, 0.4046584666, -0.2314941883, -0.0722644553, -0.2908398509, 0.2100972831, -0.0461163446, -0.0987884700, -0.4149519801, -0.2195755243, -0.0022830318, 0.1124209166, -0.0046985829, -0.1846076101, -0.0011712929, -0.1482378393, -0.2688777149, 0.0883611590, -0.1267096847, -0.0174224637, -0.0428189076, -0.0245405789, 0.0099990852, -0.0881476849, 0.0593010932, -0.0445586741, -0.2270559072, -0.0025459782, -0.1144731790, 0.0465518422, 0.0196202248, -0.1168968230, 0.1600589752, -0.1849695593, 0.1078553125, -0.0027052790, -0.1749211550, 0.0384585708, -0.0942720994, -0.0947114304, 0.1504726708, 0.5400422812, -0.4437538683, 0.0253715310, -0.2495532632, 0.0676104128, 0.0747075230, -0.2405637950, -0.0618213788, -0.0216069538, -0.0590347238, 0.0978699997, 0.0169728473, -0.0496351756, 0.1392059773, -0.0067845187, -0.3012450337, 0.0913299844, -0.1164730415, 0.0367347449, -0.1285461634, 0.0588219613, 0.0824384242, -0.2508751452, -0.0015366927, 0.0249049272, -0.2425437123, -0.0321832597, -0.0948464870, 0.0608301871, 0.0171868671, -0.1145012900, -0.1144997627, -0.2264459282, 0.0891728997, 0.0216377974, -0.4083897769, 0.1432192028, -0.1442171782, 0.0317339189, 0.1222270131, 0.3422916532, -0.3042642176, 0.1440404952, -0.1224882975, 0.0959105268, 0.0219548922, -0.3071776032, -0.0070851552, -0.0906333998, 0.2525278032, 0.0173512213, -0.1588157862, -0.2418779135, 0.0864525214, -0.1044998616, -0.0110211810, -0.1086726710, 0.0001685483, -0.0965028927, 0.1037562042, 0.0491377413, -0.1958656609, -0.2557862997, 0.1959742457, -0.0261998344, -0.2290012091, -0.1012339741, -0.1480988115, -0.1700916439, 0.0231247693, 0.1220912784, -0.2966474295, -0.3255883455, 0.1229118332, -0.0793778747, -0.0650578141, -0.2606662214, 0.0674113780, 0.0262513105, 0.2065370679, -0.0789485499, -0.3006792068, 0.1158915535, -0.1512434036, 0.1163792759, 0.0742967427, -0.1447044909, -0.0803554207, -0.0204499103, 0.0840371922, 0.0566366389, 0.0314057320, -0.0112036746, -0.0124229928, 0.0179298781, -0.0935884640, -0.0228988007, 0.0094681010, -0.0091441022, -0.0810276195, 0.0435876399, -0.0088119535, -0.1993291825, -0.1876612604, -0.1405229867, -0.2124907970, -0.1655847430, -0.1873169094, 0.0583872609, -0.1172431186, 0.1375663579, 0.0857499316, -0.1216091886, -0.0040565664, -0.2370389998, -0.3143335879, -0.1615381688, -0.2382800281, 0.0068444614, 0.1663546115, -0.0687955543, -0.1177290231, 0.1251068115, -0.1323419660, -0.0116303265, 0.0151824942, -0.0794616565, 0.0131173069, -0.2036214769, 0.1966771334, 0.0439263694, 0.0598545745, -0.1692866981, -0.0863486528, -0.3195887804, -0.0567900352, -0.2258257419, -0.2080654502, 0.0431628600, 0.0647008941, 0.0955195278, 0.0207331609, -0.1037044749, -0.0613715164, -0.3175640404, -0.1403061301, 0.1048102677, -0.1385567188, 0.0846377015, 0.0514773019, 0.1143088937, 0.1043928340, -0.2027888447, -0.0438166820, -0.2530071735, -0.1473437697, 0.0432294682, 0.0003381606, 0.0476243496, 0.3407081068, -0.1627091318, -0.0858315006, 0.1253416687, 0.0221671574, 0.0852444619, 0.1117290184, -0.1100259274, -0.0250606760, 0.0903584287, 0.2046334594, 0.0066078403, 0.0784669518, -0.2639225125, -0.0962817818, -0.4214615524, 0.0726983026, 0.0194577295, -0.0347148068, 0.1357863992, 0.0006568044, 0.0653303564, 0.0152144618, -0.1378166229, -0.1136124134, -0.1809296459, -0.1586124897, 0.0818994269, -0.1390002221, -0.0462575406, 0.0988072604, 0.0534135737, 0.0695490688, -0.1795522273, -0.0911189988, 0.0171281416, -0.0354820900, 0.0664500743, -0.2040399909, -0.2302176505, 0.2278895080, -0.2046068460, 0.1028900221, 0.2313050032, 0.2886388600, 0.0271351431, 0.1797093898, -0.4271295667, -0.1202977672, 0.0203740075, 0.0451224670, 0.0775240660, -0.0393606499, -0.2956384122, 0.0065283310, -0.0454935133, -0.0612288788, 0.1651336253, -0.0389625654, 0.0736617446, 0.0594545752, 0.0556963012, 0.0713284463, -0.1472344398, 0.0168468487, -0.0648810118, -0.1661003530, 0.0126943849, -0.1359322518, -0.0591698028, 0.0096858162, 0.2071901560, -0.0504332371, -0.0986804590, -0.0277608912, 0.0063787024, -0.0586625822, 0.0216421299, -0.1272523254, -0.1039310992, 0.0315256193, -0.2364862263, 0.0480262190, 0.1934422106, 0.2400689125, -0.1630191505, 0.0831221938, -0.5041250587, 0.0373935327, 0.0389786176, -0.0385218412, -0.0017219121, 0.1260226071, -0.1276993901, -0.0175649114, -0.0672137514, -0.1577610821, 0.0886354297, -0.1146816388, 0.1115202755, 0.0124688558, 0.1798621714, -0.0930074602, -0.1825232506, 0.0374312885, 0.1316370666, -0.0323929861, -0.0513246320, -0.2334887981, 0.1801157445, 0.1380794048, 0.0554317273, -0.1073333174, -0.1372137517, -0.0688963756, 0.1580086201, 0.0131977499, -0.0122542912, -0.1798362434, -0.1441235691, -0.1367380321, -0.2052163482, 0.0233536679, 0.0063538007, 0.1144426018, -0.2344332188, -0.2793536782, -0.1703789383, 0.2149072140, 0.2096110880, -0.4070589542, 0.0491227694, -0.0224621966, -0.1786921918, 0.0075790975, 0.0766323209, -0.1373128295, 0.2007999718, -0.1965060383, 0.1645500213, 0.0281017013, 0.0744415671, -0.0400477760, -0.1626439989, 0.0108823739, 0.3008737266, -0.1196289286, -0.0131576983, -0.2028022259, 0.1269988716, -0.0519508533, 0.0606356040, -0.0153116379, -0.0906393081, 0.0775689110, 0.1777246594, 0.0312346723, 0.0225904714, -0.0819688663, -0.0819650441, -0.4172995985, -0.1305912435, 0.0328937806, -0.2961676717, 0.0764578655, -0.1192394271, -0.4355081916, -0.0065573030, 0.2662157714, 0.0385182910, -0.1974886805, -0.0492647849, -0.0018491382, -0.1787517220, 0.0973785967, 0.1513736695, -0.2191712856, 0.2572758794, -0.1864945740, -0.0587827414, -0.0944362357, -0.0315822475, -0.0535936281, -0.0467766300, -0.0452296920, 0.2942809463, -0.0819574669, 0.0873509347, -0.1148162708, -0.0054146843, -0.1035093814, -0.0824265033, 0.0466330349, -0.0972884595, -0.0260151662, 0.1524218172, -0.0222269353, 0.1244193837, -0.1108305901, 0.1514214426, -0.4710744023, 0.0462791324, -0.0228029154, -0.4311774075, -0.0451529287, 0.1280225813, -0.4874024093, 0.0107805692, 0.0874827430, -0.1157824248, -0.0259894803, -0.1428083628, -0.0078727743, -0.0836081058, -0.0422777086, 0.0394115597, -0.2174397707, 0.2015011609, -0.1799848825, -0.0226351805, 0.0387402140, -0.0132049965, -0.0277083386, 0.0055657532, 0.0979532897, 0.0732481554, -0.0918947682, -0.0075104572, -0.1871505082, -0.0399854369, 0.0335317068, 0.0062079560, 0.0707008913, -0.0940720886, 0.0330615379, 0.1423319429, -0.1084097028, 0.0778827369, -0.0433970541, 0.2889863253, -0.3026635647, 0.0595422536, -0.0266908910, -0.5084468126, -0.0850828364, 0.3227488995, -0.2296883017, 0.0439255945, -0.0313100033, -0.1955598444, 0.0716581419, 0.1027480066, 0.0438382663, -0.1095163822, -0.0096462229, 0.0670102239, -0.1516522169, 0.0259913448, -0.1213531420, -0.0588599145, 0.1187940314, 0.1087266132, 0.1451826543, -0.0309847519, 0.0693486258, 0.0445333682, -0.0978819206, -0.0684900209, -0.1006894335, -0.0011884575, 0.1040035337, -0.0171836186, 0.0365405418, -0.1559462100, 0.0485362075, 0.0555080995, -0.1324374080, -0.0156013891, -0.0888065547, 0.2146114260, 0.0136203468, 0.1147862002, -0.1197373495, -0.2034647763, -0.2485270500, 0.2989241779, -0.2015905380, -0.1373272687, -0.0797278658, -0.1243229434, 0.1051122993, 0.0955308601, -0.0405580364, 0.0719410703, 0.0221194774, -0.0385925211, -0.2921486497, 0.0421745069, -0.0986649618, -0.0633388609, 0.1707067639, 0.0240673479, 0.1364027560, -0.0159994513, 0.0519139506, 0.1139951050, -0.2707108855, -0.0417811200, -0.0325324386, -0.1208388433, 0.1173707098, -0.0093964804, 0.0115157720, -0.0972136110, 0.0878164992, -0.0174295660, -0.2085182369, -0.0062856860, -0.1052430123, 0.0429572426, 0.1501545310, 0.4372585118, -0.2424652725, 0.0128124524, -0.1182505488, 0.1622314006, -0.0219371188, -0.2850833833, -0.2117501646, -0.1446359307, 0.0477750450, 0.1252466142, -0.0666845664, 0.0517551750, 0.1173178777, -0.1176034212, -0.3085081279, -0.0253958032, 0.0406473316, -0.0355961695, -0.0827942267, -0.0595200881, -0.0390765145, -0.0812384039, 0.2066776454, 0.0774901211, -0.2458862215, 0.1219147518, -0.0529592671, -0.0413998514, 0.0154136335, -0.1548831761, 0.1124935448, -0.0123338085, 0.2021614760, -0.0761520714, -0.4144882560, 0.1212343425, -0.1767721325, 0.0743854120, 0.1427592933, 0.4133686125, -0.4553066194, 0.1056969315, -0.3755642176, -0.0282042548, 0.0780575797, -0.3786549866, -0.1114926115, -0.1673137695, -0.0411658436, 0.0963821784, -0.1712051183, 0.1253853142, 0.1558477730, -0.1720139980, -0.3845484555, 0.0460976847, 0.1107337922, -0.0706622303, -0.0761087760, 0.0141482726, -0.0305133462, -0.1387514174, 0.1566948444, -0.0366469175, -0.2840830684, 0.0157576241, -0.1330633909, -0.0664975941, -0.1323003024, -0.0028120272, 0.0079397764, -0.1248488203, 0.0440673977, -0.0651035383, -0.3828000724, 0.1123597622, 0.0469696596, 0.1095745638, 0.1595306247, 0.2232366502, -0.2726697326, 0.1070887670, -0.2073754519, -0.0611123182, -0.0312805958, -0.2617790103, 0.0658576563, -0.0281188190, 0.2081871182, 0.0516793728, -0.2636903226, -0.1702128500, 0.0987410396, -0.1563461870, -0.1419319361, -0.2503207028, -0.0060698441, -0.1575993448, 0.1044951081, 0.0756498873, -0.2298344970, -0.1903556138, 0.0583455935, -0.1252537668, -0.0502710231, -0.1381793171, 0.0887297541, -0.1774219126, 0.0151038943, 0.0312664248, -0.2655367553, -0.1750665456, -0.0132743753, -0.2114360929, -0.1594680995, -0.3018915057, 0.0492504649, 0.0720225349, 0.2470596135, 0.0094004571, -0.1445186287, 0.0801011696, -0.0895793736, 0.0238305125, 0.0383629426, -0.2000642717, -0.0166120790, -0.0010744346, 0.0579345524, -0.1701158136, 0.0638380796, 0.0494722612, -0.0388302989, 0.0660494715, -0.0346024632, -0.1092914492, -0.1954087764, -0.2159415334, -0.1787333637, 0.1479463279, 0.1990498602, -0.2594083846, 0.0295342971, -0.0775677338, -0.1916064620, -0.0976324305, -0.0857233405, -0.2543480098, -0.1198219135, 0.0971079990, 0.2013279647, -0.1272666305, 0.0111430287, -0.1540126354, -0.1253195703, -0.0531949103, -0.0780117810, 0.0979646966, 0.1958573759, -0.1236855760, -0.2183952481, 0.2082340419, -0.0294075496, -0.0244330522, 0.0969540030, -0.0777860954, 0.0223133191, -0.1401280612, -0.0606322996, -0.1229701191, 0.3291628659, 0.0277729817, -0.0147301098, -0.1040982828, 0.0867549405, -0.2544941902, -0.1284170151, -0.0407545492, 0.1543305069, 0.0973925143, 0.1420442462, -0.2819969058, -0.0461072214, -0.3165872991, 0.0576634109, -0.1614628434, -0.1631379277, -0.1227172837, 0.1806919426, 0.0509885028, -0.0468887538, -0.3126327991, -0.0079459846, -0.2775585651, 0.1312070638, -0.0891807079, -0.1845156550, 0.0454995297, 0.1641522348, -0.0523872152, -0.2154510617, 0.0697137192, -0.1073196158, -0.0209354125, 0.1621157378, -0.2317921817, -0.0902662650, -0.0243504401, 0.0273184385, -0.0872654319, 0.1401623189, -0.1477611065, -0.0000416613, -0.3479954302, 0.1793591231, -0.1395282298, -0.0079631386, 0.0807566866, 0.0156693608, 0.0734508708, 0.0065650553, -0.2628802657, -0.2342963666, -0.2661286294, 0.0813439265, -0.0023321318, -0.0458909869, 0.0409180894, 0.0276147518, 0.0729405880, 0.0315869115, -0.0905456915, -0.2149897367, -0.2195627689, 0.0369472653, 0.1488250345, -0.1725488305, -0.0359116904, 0.0425115675, -0.2342090756, -0.0344523005, 0.1705365181, 0.0157370884, 0.0869289339, 0.0761636570, -0.3029110432, 0.1016340777, -0.0844523460, -0.0415464826, -0.0529265478, 0.0864961222, 0.0065497425, 0.0085043283, -0.3733256459, 0.0632704571, -0.0011322898, -0.0970185846, 0.0357387885, 0.0525786728, 0.0611780845, 0.0348905213, -0.0718962923, -0.1088411808, -0.1707593352, 0.0193456411, -0.0029192467, -0.0845010653, -0.0175467301, 0.0331874974, 0.1904442906, 0.0896417052, 0.0157942586, -0.0894275382, -0.0664205179, 0.0304129440, -0.0105979564, -0.0694303513, -0.0757875592, -0.0080675231, -0.2573991120, 0.2747230530, 0.0166630484, 0.1271653175, 0.0939249247, -0.1181639507, -0.3997933269, -0.0163815245, 0.0126777058, -0.0692969859, -0.1223527938, -0.0009899725, 0.0173566658, 0.0095950020, -0.3023180962, -0.0796917826, 0.0772942752, -0.1601099819, 0.0933937952, 0.0383183025, 0.0240482576, 0.0364066511, -0.0448576063, 0.0274737272, -0.0243642051, -0.0881382450, -0.0777906999, -0.0722928196, -0.0621280782, 0.0807698220, -0.0188183039, 0.1375841945, 0.0487214252, 0.0363622755, -0.0983281285, 0.1198741868, 0.0214455947, -0.0791568086, -0.1015517935, 0.0288759731, -0.1919175237, 0.2326287776, -0.1105903760, 0.1369425207, 0.0566577986, -0.2120100260, 0.1223357320, -0.1183939129, 0.1592164338, -0.1845564246, -0.0307417568, 0.0849982426, 0.0226068962, 0.0889387503, -0.2423823178, -0.0314232074, 0.1242678538, -0.0965644941, 0.1290704161, 0.0032253477, 0.0933289677, 0.0160099231, -0.0923843905, -0.0408257172, -0.0343679227, -0.2069445401, 0.0045877988, -0.0781648606, 0.0537745766, -0.0989556834, -0.0200526249, 0.0910249352, 0.0696859807, 0.1277709752, -0.0104480730, 0.0734232813, 0.0572451837, -0.0462954231, -0.0171975754, 0.1187196001, -0.0782121718, 0.2122167200, -0.2929085493, 0.0665624589, 0.1332836598, -0.3279370070, 0.0700392872, -0.3118555248, 0.0895027444, -0.0380822867, -0.0646466613, -0.0470980369, -0.1112057641, 0.0067559839, -0.1122300252, -0.0052048159, 0.0489087552, -0.1183996573, 0.1639935970, 0.0710234344, -0.0349126011, -0.0789620802, -0.0981289670, 0.0788609758, -0.0499400534, -0.0268690307, 0.0498056486, -0.1970215887, 0.0087001743, -0.0053307097, -0.1574553698, 0.1424603164, 0.0011666917, 0.0638001189, -0.0709950328, -0.0522850193, -0.0259524733, -0.0061866664, 0.2835244238, -0.0016449494, -0.1589505970, 0.1552689523, -0.1419832408, 0.0556591265, 0.0627584532, -0.2999376357, 0.1905470639, -0.4004564583, 0.0023454579, 0.0957259089, -0.0457760170, -0.0037582442, -0.0071211895, 0.0796739981, -0.1564130187, 0.0094659962, 0.1069687605, -0.0353629850, 0.0292838868, 0.0253342744, -0.0832441077, -0.0396188758, -0.0205178801, 0.0797345340, -0.0679031834, -0.1302302480, 0.0929203480, -0.1350236386, -0.0105060777, 0.0824719742, -0.1364839971, 0.0187749937, 0.0380644388, 0.0988723040, -0.0696216598, 0.0328882895, 0.0285283774, -0.0068844152, 0.1856390685, 0.0971275643, 0.0303099230, 0.0498184897, -0.1390596628, 0.0495550707, 0.1529197991, -0.3959539831, 0.2629421651, -0.3561721742, -0.1153048873, 0.0934556425, 0.1103996858, -0.1216138601, 0.1029756293, -0.0051094266, -0.0309020411, -0.0932037309, -0.0079904664, -0.0156422500, -0.1431282610, 0.2190964073, 0.0392247550, 0.0779696256, 0.0385915637, 0.0298411530, -0.0718894154, -0.0528905056, -0.0101315994, -0.1141538024, -0.0963166207, 0.0559241362, -0.0669611171, 0.0715941340, -0.0103054475, 0.0079195555, -0.0996997282, -0.1525731236, 0.0315189101, -0.0194145665, 0.1799904406, 0.1777532548, 0.2073040605, -0.0694763213, 0.0902915522, -0.0459683649, 0.1147383526, -0.2803305984, -0.0009862462, -0.1280814409, -0.2915691435, 0.1231616437, 0.2120678574, -0.0924375355, -0.0040962421, -0.0585471168, -0.0486382917, -0.2070405334, 0.0147125265, 0.1222778484, -0.0410314873, -0.0007114115, 0.0194779914, 0.0917075053, 0.0043917815, 0.0470246039, -0.0600889884, -0.2415554821, 0.0251232665, -0.0214862842, -0.1772274822, 0.0048390217, -0.0576731823, 0.0564638563, 0.0621014982, 0.0037780106, 0.0617179088, -0.2078608572, 0.1644731760, -0.0356907211, 0.0955081806, 0.1234037206, 0.1883953959, -0.2298474163, 0.1081870124, -0.0684515312, -0.0671902895, -0.0009834173, -0.1992001384, -0.0034939570, -0.2415103614, 0.0983538181, 0.1352121830, -0.1435777247, 0.0425703637, -0.0664211214, -0.0272448603, -0.2955251932, -0.0611563288, 0.0294035096, -0.0278993081, 0.0027525825, 0.0362429470, -0.0391865894, -0.0072824662, 0.1442661881, -0.0736555308, -0.2840811312, 0.0099960119, 0.0581511557, -0.0962190554, -0.2102547586, -0.0583561137, -0.0397646688, -0.0409287661, 0.0138631007, -0.0693975687, -0.2587721348, 0.1154949367, 0.0076606362, 0.0727660358, 0.2201942950, 0.0437978655, -0.2116331011, 0.0776341185, -0.0938857347, 0.0567852557, 0.1379280090, -0.2295096666, -0.0467485674, -0.1406727731, -0.0770371780, -0.0311624780, -0.1406935900, -0.0163185801, 0.0782950819, -0.1624117345, -0.2348485887, -0.0819754526, 0.0506792925, -0.0338324718, -0.2058530897, 0.0741785020, -0.0586838648, 0.0962150171, 0.1579385847, -0.3072635233, -0.4511566460, 0.0291828327, 0.0154714147, -0.2231961191, -0.1070592850, -0.0303983204, -0.0958324224, -0.0086729042, 0.1673453897, -0.2145809233, -0.3057257533, -0.1330188662, 0.0516562834, 0.0091340803, 0.1877805740, -0.0335538462, -0.1950708181, 0.2371409237, -0.0759013668, 0.1011921167, 0.1496099830, -0.0838596970, -0.0337000117, -0.0372143202, 0.0382803492, 0.0669099838, -0.0004208218, -0.0824274719, 0.0631393716, -0.1506048888, -0.0920142531, -0.2942664325, -0.0655534863, -0.0484776311, 0.0761457533, 0.1250258833, -0.1084889024, -0.0193385817, 0.0034874419, -0.2865054905, -0.3215382695, -0.1862262934, 0.0769220218, 0.0003980193, 0.0642724782, 0.1218552589, -0.1969117224, -0.1909112036, 0.0220507998, -0.0780154318, -0.1095507368, -0.3145219684, -0.0126825441, 0.0462912843, 0.1807288677, 0.0101576336, -0.1069504321, 0.1851074696, -0.0232250262, 0.0605940260, 0.1940011233, -0.1016971692, 0.0379614681, 0.0136046438, 0.0825863332, -0.0682793632, -0.1491284221, 0.0805217922, -0.0717066824, 0.0007594000, 0.1136255339, -0.0084631545, 0.0112166889, -0.1646690220, 0.0087600574, -0.3142051399, 0.2043049932, -0.0875288546, 0.0685886145, -0.0519130081, -0.0032159309, -0.2075141966, -0.1111787111, 0.0287710093, -0.1225259230, -0.2063573152, 0.2069730759, -0.0376279391, -0.0237080809, -0.0459622331, 0.1252983063, -0.1214089841, -0.1130728349, 0.0159153324, 0.2169194818, -0.1720704138, -0.1711826921, 0.0938372836, -0.0770632476, 0.0446413755, 0.1645238996, -0.2172198445, -0.0681186318, -0.0326424688, 0.0315738693, -0.2344110906, 0.0549213663, -0.0065159565, 0.0401588194, 0.0241664853, 0.0532641299, -0.2506701648, 0.2533791959, -0.1015744060, -0.0165839344, -0.3394936025, 0.1156251058, -0.2413310260, -0.1432700008, -0.0657655597, 0.1343296468, -0.3508523703, 0.0171507876, -0.1250194311, -0.1261159033, -0.2557180226, 0.1304403096, -0.1808209866, -0.0680130571, -0.0187727567, 0.2021832317, -0.3228928745, 0.0893973112, 0.0828372538, 0.1708425581, -0.0347986929, -0.2543909252, 0.1901282817, -0.0372176729, -0.0053080856, 0.0671476573, -0.2016363293, 0.0204875451, -0.2947564423, -0.1069340631, -0.1819087565, 0.1246642768, -0.1039383784, -0.1152882427, -0.1042285562, -0.0167507529, -0.2203120291, 0.3240376413, -0.1564684659, -0.0911444724, -0.2085456550, 0.1624823064, -0.2270077914, -0.0314612426, -0.1280779690, 0.1690263748, -0.2325584590, 0.0225227345, -0.0522817224, -0.0476934314, -0.2541618347, 0.1455599666, -0.1433606893, -0.1308241487, -0.1070335284, 0.2434347868, -0.1497583091, 0.0756903812, 0.1832597852, 0.1844395995, -0.1235550493, -0.1953088194, 0.0744606778, -0.1023044214, 0.0532915704, 0.0630907118, -0.1237220690, -0.0399123058, -0.2332275659, -0.2516621947, -0.2463168055, 0.3404289782, -0.3120197654, -0.1079888642, 0.0320333317, 0.0502045155, -0.3425393403, 0.1846395731, -0.2186840028, -0.0680548102, -0.2144131064, 0.1861579269, -0.0264572948, -0.0095699802, -0.3571147323, 0.2504148185, -0.0900620297, 0.0970739052, -0.1991991550, -0.1063717604, -0.0783330798, 0.1067218482, 0.0101469466, 0.0188534874, -0.3076168895, 0.2062651962, -0.0160068274, 0.1034435108, 0.1417712718, 0.2253135145, 0.0187069587, -0.1785944402, 0.0550398007, 0.0207690336, 0.0344145298, -0.0104726478, -0.0444675758, 0.0053027016, -0.4885098934, -0.1285449564, -0.4576934278, 0.3783417344, -0.2619059384, -0.0398053005, -0.0922762975, 0.1054338440, -0.3560055196, 0.1543243825, -0.2443751842, -0.1720173359, -0.0885251388, 0.0582571551, 0.0088038128, 0.1561443955, -0.5250599980, 0.0493556969, -0.0643062070, -0.0062174862, -0.1965139210, -0.0603124313, -0.1373336911, 0.1398746967, 0.0855112821, 0.0247665942, -0.4608934224, 0.1095371693, -0.1618950069, 0.0723742694, 0.2426567078, 0.2438256443, -0.1037121639, -0.1614944637, 0.0623182133, 0.0020693089, 0.1044981405, -0.0748979077, -0.0986115411, -0.1894171983, -0.4767742157, -0.4397154450, -0.3394522071, 0.2923364341, -0.3038091063, 0.1696659625, -0.0780052170, 0.0825762451, -0.3080814183, 0.2371345311, -0.1960633099, -0.1442937255, 0.0004465884, 0.0527783446, -0.0632937551, 0.0833513215, -0.2671988904, 0.0471347868, -0.0354263075, 0.0606182665, -0.1422474533, -0.0338715315, 0.0122385118, 0.0359858014, -0.1144274175, 0.0856983960, -0.2662127614, 0.0659770742, -0.1010772735, 0.0140690124, 0.1185484976, 0.2497320622, 0.0264927428, -0.2462092638, 0.2432046831, 0.0199457426, -0.0136852711, 0.0350956209, -0.0175683219, -0.3200168610, -0.5299241543, -0.1562666595, -0.2108994871, 0.2295993418, -0.2625958323, 0.1184252203, -0.1136130914, 0.1147637665, -0.2670665681, 0.1232476532, -0.1583542675, -0.1148397699, 0.0477158166, 0.1900608540, -0.0123605141, 0.2056006491, -0.2446813583, 0.1227277592, -0.0986409709, 0.0094057806, -0.1358484924, -0.1169050485, -0.0038387354, 0.0012230102, -0.0184302200, 0.1367240697, -0.2898077965, 0.1200839281, -0.0625411943, 0.0130429910, 0.1004249752, 0.2214240134, 0.0032970763, -0.1348749697, 0.0734343976, 0.0305402391, 0.0122959428, -0.0318503864, -0.1382199973, -0.1785160154, -0.4532109797, -0.1701565087, -0.1041399017, -0.0595189333, -0.2278799564, 0.0719287172, -0.3601514697, 0.2221404612, -0.1740720272, 0.1539228410, -0.1129130498, -0.1907658428, 0.0333838947, 0.0501943342, 0.0783139095, 0.0352188386, -0.1696727872, 0.0373401456, -0.0211887863, 0.0600884855, -0.1284699142, -0.2656914592, -0.0552454218, 0.0259048026, -0.0944973230, -0.0411052480, -0.2273947448, 0.1183851287, -0.0595719106, 0.0480809659, 0.2645438313, 0.2705763876, -0.0656214282, -0.1017888486, 0.0768784434, 0.0225301422, 0.0088108433, 0.0460019112, -0.0662153214, -0.2157391757, -0.4307865500, -0.4592726827, -0.2030511200, -0.0050885044, -0.2944177091, 0.0639097467, -0.2427145094, 0.1377823800, -0.1825147569, 0.1952319890, -0.2053181082, -0.1688517034, -0.0214010961, -0.0270658731, 0.0087782899, 0.0313997492, -0.1802801788, 0.0699918047, 0.1072515622, 0.0853074789, -0.2111252099, -0.0492522977, -0.1212313473, 0.0147861168, -0.0735721439, 0.0885998830, -0.0760461539, 0.0335702561, -0.0552378558, 0.0692192093, 0.1421267241, 0.1924791485, -0.0946447998, -0.1718640178, 0.2364787310, -0.0722425133, -0.0027193690, 0.1247304082, -0.1751412004, -0.1658914238, -0.3668159246, -0.2620956898, -0.1603473425, -0.0477060452, -0.3951514959, -0.0224937014, -0.0213737115, 0.1083909273, -0.0639100671, 0.1020180583, -0.1933938265, -0.0650012717, -0.1144551560, 0.0451115444, 0.0299001206, 0.0601881370, -0.1425712109, -0.1438416392, 0.1163933799, 0.1413476318, -0.3057183623, -0.1504497081, -0.0983707011, -0.0371534750, -0.1142876744, 0.0906622410, -0.3144776225, -0.0327729359, 0.0099221747, 0.1249392778, 0.1154658869, 0.2939072847, -0.0149016343, -0.1172441542, 0.1259074509, -0.0180075672, 0.0350712724, 0.1332364082, -0.1895661652, -0.0696488246, -0.2281624377, -0.0836771131, -0.2523421943, -0.0507510565, -0.3446004689, -0.0006158788, -0.0407807790, 0.0408535339, -0.2089314312, 0.1387368888, -0.1928305924, -0.0861179903, -0.0109633803, -0.0987630934, -0.0110381292, 0.1755848974, -0.3525724411, -0.2126960754, 0.0618054122, 0.2125272751, -0.1957860291, -0.1514957249, -0.0512914769, -0.0510437004, -0.0309483111, 0.1038142219, -0.2482103109, -0.1104508564, -0.0695965067, 0.0108708842, 0.0172295645, 0.1519395858, 0.0100878291, -0.1945835352, 0.0668388829, -0.0299011692, 0.0781144351, 0.0874115974, -0.0929131061, -0.0551750660, -0.2112985253, -0.0084461980, -0.2858248055, -0.0559602305, -0.1105957106, 0.2125816047, 0.0151847955, 0.0071210773, -0.1044124886, 0.0196869560, -0.1453373283, -0.1802296191, 0.0755280256, -0.0457214378, 0.0458766855, 0.0314270929, -0.2968157232, -0.1641344130, -0.1865530610, 0.0530293398, -0.2401778996, -0.1623046249, -0.0104301013, -0.1886998117, -0.0220829528, 0.0403010920, -0.2300814688, -0.1949747950, -0.1852321625, 0.0199233759, 0.0988977849, 0.2679920793, -0.1710820049, -0.1071247607, 0.0670736954, -0.0267799143, -0.0345843174, 0.2161283791, -0.1026780829, -0.1140318140, -0.0767088309, 0.1496860385, -0.0385904796, -0.0238039680, -0.0474768393, 0.0736787468, -0.0803843215, -0.0595408902, -0.1424645483, -0.1104935482, -0.0663452670, 0.0345093124, 0.1204236820, -0.1159536690, -0.0720060766, 0.1332019567, -0.0330033936, -0.0695952922, -0.2465565950, -0.0674445033, -0.1441137493, 0.1645054668, 0.0412350893, -0.1004512981, 0.0654219538, -0.1146718264, -0.1086724848, -0.0448026396, -0.2899365127, -0.1399842203, 0.1008767709, 0.2253647596, -0.1665974408, -0.2109784186, 0.0717556849, -0.0675471798, 0.1112328097, 0.1331762373, -0.0543131121, -0.0518215075};

#endif

#endif
